tree
version=v4
num_class=1
num_tree_per_iteration=1
label_index=0
max_feature_idx=26
objective=regression
feature_names=discount_kind_final discount_pct_final buy_qty pay_qty get_qty discount_is_pct discount_is_multibuy discount_is_unknown effective_price_multiplier_final effective_discount_depth_final duration_hours duration_hours_capped has_start_time has_end_time has_valid_time duration_is_valid hour_of_day_start day_of_week_start is_weekend_start month_start daypart num_items_targeted place_id item_id campaign_segment order_count place_total_order_count
feature_infos=-1:1:0:4 [0.10000000000000001:0.94999999999999996] [2:2] [1:1] [0:0] [0:1] [0:1] [0:1] [0.050000000000000044:1] [0:0.94999999999999996] [0:9360] [0:720] [1:1] [1:1] [1:1] [0:1] [1:23] [0:6] [0:1] [1:12] -1:1:2:3:0 [0:1] -1:2:6:4:1:0 -1:10:0:1:8:11 -1:0:2:1 [0:20] [15:17914]
tree_sizes=337 336 407 427 408 410 406 410 407 410 418 434 419 512 419 416 432 413 418 416 434 511 416 434 405 515 513 495 501 513 497 518 511 515 529 509 516 525 509 528 509 527 514 509 528 516 498 516 500 518 438 488 528 515 506 529 443 510 527 430 499 431 517 498 432 410 518 429 419 507 410 421 506 437 418 530 437 420 428 429 420 420 438 511 513 438 418 535 512 523 435 511 535 505 530 430 410 515 501 520 428 503 519 501 521 503 522 507 522 431 411 522 507 522 507 522 507 521 432 502 520 503 520 502 522 489 410 522 507 522 508 523 508 521 523 502 512 504 510 484 512 483 512 513 412 510 413 512 413 510 484 501 512 484 511 411 523 513 413 520 483 519 504 513 506 513 507 509 508 509 505 498 506 508 509 499 506 499 499 499 499 506 412 497 496 499 506 520 413 507 413 524 500 527 484 521 414 413 523 506 523 508 523 486 522 508 528 485 520 412 413 522 506 522 485 523 485 524 508 528 486 521 414 524 524 486 521 414 523 523 523 415 519 412 524 522 523 520 415 485 524 523 522 414 524 524 527 414 521 524 508 522 523 522 414 413 522 526 414 524 523 524 415 524 522 506 509 525 524 527 524 507 522 523 521 507 526 502 519 416 527 520 511 522 522 528 511 528 500 506 502 507 490 488 503 485 488 507 503 485 508 507 510 506 506 487 509 508 523 490 508 503 508 508 508 512 524 504 509 490 506 506 508 490 485 508 509 506 485 508 508 512 507 504 487 509 508 502 509 507 508 486 511 416 504 415 525 416 526 524 525 490 522 524 524 487 524 504 504 490 502 502 524 416 523 491 525 502 525 490 525 504 483 503 487 510 521 413 415 524 416 526 524 523 490 526 503 508 504 510 488 502 508 507 508 505 489 508 507 417 489 510 528 523 416 506 415 416 504 510 492 509 530 526 508 418 491 511 509 511 512 524 416 510 417 529 418 491 527 509 530 436 510 490 511 508 525 530 491 418 528 509 510 417 510 525 418 419 438 417 511 438 419 504 503 418 513 512 439 418 509 504 512 511 511 513 511 514 512 513 511 512 418 521 418 525 418 508 419 519 487 511 510 510 521 512 525 416 417 418 527 418 512 439 439 512 530 511 532 512 515 510 513 529 418 512 418 511 524 417 418 438 512 531 512 436 512 417 511 491 528 532 528 512 510 529 512 510 529 512 416 419 512 415 489 531 527 511 416 510 510 489 509 527 511 510 529 511 416 511 417 511 490 510 437 512 417 511 490 510 529 510 417 439 511 490 510 511 418 438 508 489 510 518 512 417 510 490 511 512 515 529 417 510 490 511 518 513 417 439 512 491 510 512 418 515 511 512 507 518 512 418 512 490 511 518 512 515 511 513 511 512 418 511 529 507 511 510 519 511 519 511 525 491 510 531 504 489 418 511 513 511 416 512 418 526 510 514 512 416 508 511 511 510 415 511 418 509 533 511 514 532 512 513 533 511 524 491 534 419 514 533 511 517 513 490 514 533 531 519 510 510 491 492 514 532 511 418 490 534 491 513 511 531 528 491 491 512 510 511 418 489 514 534 520 512 419 493 490 515 511 519 512 520 507 511 490 515 513 416 491 516 511 513 507 415 490 516 510 508 491 514 534 520 513 490 514 533 514 419 490 516 511 513 508 519 490 509 492 491 513 509 510 492 513 510 510 510 511 492 419 491 516 509 511 511 509 419 511 492 510 494 512 501 511 508 510 419 502 510 490 509 510 419 511 490 510 418 419 511 494 509 511 511 493 526 506 510 510 506 511 513 419 511 417 419 511 511 494 510 509 509 510 512 511 494 502 419 529 501 501 509 510 491 493 417 528 519 509 496 514 492 419 494 492 419 418 511 494 510 511 488 492 528 506 511 511 484 495 520 511 513 492 417 418 511 414 419 502 511 490 493 487 490 532 497 495 495 489 490 495 494 418 490 492 489 491 419 494 491 509 510 491 493 494 516 511 511 399 516 493 532 399 490 488 494 418 490 420 419 419 419 527 517 519 419 512 419 494 420 418 527 417 496 490 528 419 492 489 419 419 418 494 419 418 511 418 527 399 527 418 494 399 512 532 416 507 511 527 494 495 399 419 509 419 511 482 419 418 493 419 527 416 419 487 419 420 418 417 510 396 419 418 494 419 418 419 418 509 418 510 489 418 510 510 399 511 419 398 419 398 509 510 526 419 492 420 418 419 419 493 420 526 417 527 397 524 418 492 492 398 490 420 417 419 510 418 419 418 488 489 400 400 527 489 399 420 419 528 494 531 512 489 527 438 421 487 495 438 513 429 420 491 509 512 527 419 496 421 513 421 528 488 397 399 528 490 438 437 511 420 496 438 529 420 510 511 527 502 492 421 491 419 417 494 529 491 400 420 421 527 420 495 418 420 421 420 528 495 532 418 494 439 421 418 492 529 510 510 511 512 416 420 419 511 512 419 507 494 421 421 507 492 438 494 438 439 419 515 420 420 420 496 492 420 420 502 496 419 529 420 493 535 420 533 420 493 511 513 421 512 512 421 512 515 419 419 421 512 421 528 493 420 420 513 399 420 419 528 495 421 421 529 495 399 495 420 511 420 420 510 529 510 418 512 420 420 416 502 420 496 528 509 512 420 512 511 418 419 509 511 512 534 420 530 535 417 529 420 534 420 528 534 517 530 419 421 419 515 421 420 421 509 532 420 420 496 512 496 421 492 510 513 420 512 420 421 420 421 512 421 511 512 421 511 420 421 420 420 420 514 421 511 421 510 513 420 512 420 419 493 495 421 512 510 495 420 527 493 421 419 529 494 420 528 495 493 429 431 429 505 430 430 421 494 515 430 421 420 422 421 512 512 496 418 512 419 512 421 420 421 496 421 514 420 420 422 529 495 421 529 495 421 496 419 494 420 516 419 421 513 421 501 422 417 515 492 421 421 503 420 501 422 422 422 438 531 417 422 422 518 495 421 421 421 419 420 513 421 513 514 421 510 494 513 513 420 512 512 493 530 513 420 513 513 421 511 437 512 512 421 513 420 512 513 496 422 514 422 509 512 496 421 421 419 510 514 420 421 532 421 496 496 420 513 422 493 511 493 532 420 421 492 421 496 420 512 422 422 503 421 420 495 421 497 421 421 513 512 512 421 513 513 421 422 513 496 421 422 509 512 438 514 420 421 421 517 421 420 421 422 422 495 496 420 421 422 493 439 421 512 512 530 420 420 514 511 422 513 513 422 510 512 532 422 421 512 491 400 401 530 512 514 401 513 530 527 521 512 421 511 530 421 497 420 421 421 512 419 513 514 419 495 422 514 421 512 512 512 421 422 420 422 421 512 401 511 506 509 496 493 512 496 419 420 421 422 496 422 512 421 418 421 421 513 512 422 495 422 509 511 495 421 512 420 421 439 421 419 422 493 530 420 420 421 514 421 421 497 422 495 418 496 421 514 513 511 417 421 419 494 496 420 420 419 417 513 420 514 516 511 421 421 511 511 421 512 421 512 511 532 420 493 530 513 421 417 421 495 494 422 421 421 512 513 513 496 421 420 513 421 493 513 512 419 512 514 422 420 514 496 420 422 529 511 513 514 493 420 419 421 419 531 418 513 532 420 421 525 496 495 523 493 523 516 420 525 421 422 512 421 422 518 422 419 420 421 421 516 420 420 421 420 421 420 513 511 491 530 420 497 511 420 511 514 421 513 514 417 511 421 531 420 511 512 422 512 419 512 513 511 532 420 421 520 514 401 504 401 513 418 421 513 512 515 421 420 513 514 421 512 513 512 492 532 420 420 421 422 497 519 496 421 495 422 515 421 419 420 513 532 513 421 512 532 421 421 422 421 419 531 510 421 531 418 422 497 421 422 420 511 514 422 513 513 513 532 422 421 514 401 513 495 421 512 514 421 421 508 512 512 514 420 419 493 530 420 421 421 420 497 527 495 508 440 513 420 526 513 532 420 421 497 422 510 421 527 489 525 421 513 421 421 420 512 515 421 493 422 420 493 531 420 513 512 514 421 421 493 422 513 514 421 422 513 495 422 422 512 401 507 512 510 512 503 417 510 493 420 512 419 421 493 522 513 420 512 421 421 421 496 421 514 421 421 420 420 422 420 422 494 421 493 422 514 419 421 511 513 421 513 514 421 401 496 421 514 422 508 512 512 531 440 420 400 513 513 515 491 421 421 420 511 421 420 532 421 514 421 421 421 420 493 421 422 532 420 493 532 418 491 514 421 492 527 422 420 511 421 512 420 501 493 514 420 512 421 420 493 422 420 421 419 420 513 531 419 421 422 419 422 420 511 513 421 513 513 422 496 421 512 422 520 421 511 513 420 491 422 513 400 421 521 401 512 527 421 421 401 513 518 421 419 510 420 512 421 532 422 417 513 421 421 532 421 513 420 422 422 421 421 519 515 422 419 517 422 421 421 419 511 422 421 513 513 514 512 421 401 496 422 514 509 511 419 514 420 422 420 513 420 512 421 514 401 509 512 514 421 420 401 513 422 532 421 513 531 421 492 532 493 511 420 420 513 421 525 493 519 422 420 523 490 422 513 514 532 421 419 422 421 513 493 532 421 421 512 401 422 422 421 501 422 533 422 515 515 422 511 533 420 518 515 420 513 513 419 417 401 514 525 493 514 420 421 422 418 522 422 421 422 421 512 492 532 421 421 512 419 493 422 514 522 513 513 513 422 493 401 419 513 422 510 513 421 511 421 422 495 422 422 400 521 440 512 513 421 401 496 439 530 514 514 533 527 420 421 519 526 512 439 533 421 530 514 518 527 420 422 420 512 536 420 514 514 531 421 422 527 514 438 421 422 420 422 422 519 422 512 422 515 438 518 420 421 421 511 519 422 421 421 513 399 514 512 532 439 420 420 512 513 422 514 493 422 524 514 401 400 514 419 440 520 422 536 440 514 513 514 533 439 422 401 536 419 420 513 513 400 422 513 512 421 439 515 422 528 440 421 400 534 420 422 440 444 422 422 526 512 421 422 533 439 519 515 422 514 513 419 422 422 514 532 422 421 422 421 532 421 512 420 514 401 512 514 516 420 519 515 421 422 533 510 514 401 422 512 514 422 439 420 439 537 421 513 523 400 420 439 444 422 422 440 421 417 518 512 422 515 533 527 422 421 516 528 514 527 422 519 513 439 514 421 532 422 513 516 516 422 440 533 401 422 440 421 514 422 513 514 419 421 421 514 422 421 512 445 421 536 512 513 401 513 420 440 515 422 422 420 422 440 512 422 534 440 422 401 534 422 514 519 515 438 513 421 420 419 421 512 445 401 514 513 401 401 496 439 517 530 437 518 528 440 511 518 529 419 518 530 439 518 530 419 512 421 526 519 529 417 514 421 518 532 535 514 421 440 512 421 511 517 419 516 422 421 513 494 534 513 420 422 512 422 514 421 400 420 422 421 422 511 421 420 513 512 400 422 512 420 401 422 401 532 421 514 535 420 422 527 421 529 511 525 519 530 419 516 528 419 512 421 517 514 514 420 420 420 526 518 529 419 519 526 514 419 422 519 530 419 518 514 419 515 519 529 527 509 509 496 419 514 418 418 496 513 419 422 523 513 419 534 513 418 494 532 421 422 513 493 535 514 513 422 421 494 535 422 422 513 515 492 421 421 514 420 513 400 513 530 400 421 534 400 512 512 422 514 514 422 401 536 514 440 422 421 419 420 512 420 419 421 422 422 514 493 533 422 536 421 516 494 537 420 422 516 513 401 529 400 514 422 536 513 398 530 401 512 519 528 418 514 421 525 530 519 529 419 517 419 529 513 419 444 422 419 422 418 514 514 494 534 422 513 421 493 534 516 421 421 492 514 422 512 401 399 513 529 420 421 422 493 445 421 421 421 421 422 529 514 527 421 421 537 421 515 517 530 518 529 419 514 497 526 530 419 517 528 417 514 421 518 513 421 422 518 514 528 418 518 530 418 518 512 421 421 527 422 418 514 518 511 421 419 517 530 419 518 530 513 423 421 519 515 514 421 526 422 419 514 517 509 422 422 422 421 422 420 514 517 421 514 518 529 418 516 511 422 422 422 528 517 423 513 535 421 421 422 420 420 513 422 518 515 401 514 422 421 419 494 536 512 422 533 422 422 516 422 419 422 512 512 421 401 514 531 422 421 420 421 514 528 418 514 530 514 419 530 418 513 421 527 422 534 420 519 530 513 516 529 419 514 422 527 510 514 514 530 417 419 533 421 422 518 530 419 514 421 518 529 419 513 422 527 516 514 422 422 519 513 420 527 513 514 422 420 420 422 422 518 420 529 519 419 513 536 422 422 422 420 422 421 420 518 421 516 422 422 527 513 519 512 419 530 509 419 514 536 422 422 421 527 517 515 422 512 519 512 419 531 513 418 514 422 421 421 518 515 422 419 514 517 512 421 419 422 420 421 421 512 519 515 422 492 533 514 421 515 513 401 422 513 533 422 422 421 421 419 534 422 422 529 514 527 512 514 422 513 418 496 422 530 517 419 529 513 518 513 421 422 526 421 418 494 535 514 420 422 516 494 534 422 513 514 514 401 421 421 532 515 422 537 420 535 537 513 511 422 422 513 419 536 514 417 419 527 529 512 516 419 420 418 419 421 421 421 422 420 525 497 419 519 531 419 513 421 419 422 518 529 419 514 515 514 421 419 515 420 422 518 419 511 423 514 517 513 422 418 535 421 422 422 534 421 510 518 516 419 420 536 514 422 532 418 513 513 422 420 536 420 537 445 512 422 532 418 513 421 419 514 445 513 513 422 419 421 417 421 531 514 418 422 517 422 512 512 531 419 419 514 517 416 400 421 531 513 494 535 514 422 422 494 534 421 421 516 422 421 515 420 421 514 518 419 529 511 518 421 421 417 511 511 514 529 419 530 512 517 422 530 497 419 422 400 514 422 420 513 535 399 418 399 439 536 443 512 445 421 515 441 514 514 419 531 419 514 422 422 530 497 418 422 417 514 513 421 422 513 421 420 530 513 417 422 514 496 423 422 418 419 422 518 526 419 514 421 419 422 517 419 531 514 419 422 519 514 421 418 421 421 422 419 519 513 421 513 418 421 519 531 419 514 422 517 531 419 514 513 422 422 422 513 490 421 421 422 494 536 514 514 513 421 529 420 519 531 513 420 399 511 514 419 422 513 519 513 420 420 418 422 422 517 529 419 494 421 530 512 519 421 422 423 422 422 421 519 512 422 422 422 422 418 514 534 421 421 514 422 533 421 518 515 514 518 515 422 421 516 422 421 515 513 421 422 421 535 513 422 513 514 421 515 513 421 422 532 514 422 419 513 533 514 419 533 417 422 421 516 515 511 421 514 512 514 419 510 419 418 513 512 518 418 531 513 422 418 422 419 537 421 420 418 537 513 511 422 419 513 497 422 514 445 399 513 414 422 419 422 419 422 421 422 422 422 419 515 534 421 516 421 421 515 497 422 421 422 421 513 443 421 515 444 512 512 422 530 417 514 422 497 418 515 536 513 514 418 422 513 439 421 422 531 512 519 419 422 419 536 420 516 515 512 445 439 421 515 513 513 517 440 532 439 439 517 439 531 439 512 421 514 531 418 532 514 419 511 513 511 440 440 514 422 492 421 421 420 420 497 422 421 422 519 530 418 513 419 422 518 422 530 493 419 514 419 421 512 419 419 518 513 422 493 421 514 537 400 513 493 421 422 422 420 491 444 420 514 515 420 441 513 534 513 515 503 418 506 509 422 506 422 517 418 422 422 530 492 419 420 494 420 531 496 420 421 421 495 420 514 513 529 417 496 418 514 420 422 421 422 422 492 422 531 519 420 513 536 513 420 513 512 422 514 422 492 421 512 421 421 422 494 516 513 513 513 422 422 514 493 421 421 519 532 513 421 494 422 421 421 531 492 445 421 516 513 421 441 514 512 445 441 516 421 513 515 421 513 419 421 531 491 422 419 531 515 512 529 419 493 422 531 515 512 421 419 422 416 420 421 498 422 422 419 422 517 529 419 515 529 515 421 532 517 419 513 421 421 495 514 422 418 514 492 422 493 422 531 519 513 421 514 492 512 419 422 513 519 513 419 494 421 421 421 493 513 421 422 422 422 421 420 422 422 492 515 422 513 515 493 516 422 421 509 506 421 513 423 514 508 513 418 494 422 422 421 513 517 421 494 421 530 514 513 422 422 400 422 421 422 400 422 496 515 514 493 513 516 514 421 422 493 533 512 422 532 422 516 421 516 490 536 443 418 516 492 445 444 421 437 440 533 493 421 516 515 421 516 420 441 421 516 513 421 514 517 419 422 514 516 419 422 419 515 420 421 419 515 422 420 512 421 421 421 421 417 422 514 421 421 421 419 422 422 421 491 421 420 421 422 418 422 530 490 419 422 496 421 422 421 422 421 514 421 497 422 531 418 514 530 418 498 513 421 400 418 399 493 419 514 421 513 512 422 515 514 531 419 498 421 421 527 513 531 419 497 419 513 409 513 493 418 400 419 400 517 514 496 514 400 514 422 422 422 514 495 422 513 508 513 515 533 509 514 514 422 421 495 420 422 421 513 422 494 421 515 514 422 533 421 513 493 515 444 420 515 493 444 441 515 421 511 512 518 422 418 516 419 421 530 416 422 418 530 494 418 531 513 531 440 492 419 511 532 498 419 421 494 400 421 422 512 514 422 498 422 514 422 421 530 515 514 420 513 409 514 496 418 512 421 515 512 493 421 420 421 492 516 420 514 514 441 445 441 516 420 514 518 514 422 531 421 416 515 419 518 418 532 439 494 419 531 493 419 419 512 422 417 514 514 420 422 530 493 422 494 422 417 513 420 422 497 420 421 516 492 445 516 421 516 420 490 512 514 513 515 422 513 516 515 420 514 531 439 518 421 531 415 494 422 532 514 514 530 439 498 513 419 422 418 422 514 422 421 514 422 502 494 421 422 422 422 496 422 494 421 422 422 494 398 514 513 420 531 496 421 518 421 421 422 513 422 532 421 493 419 513 534 421 514 422 515 493 422 421 506 494 422 514 418 421 515 533 421 419 514 511 497 421 513 422 419 514 419 422 498 420 534 513 422 514 494 420 492 422 530 496 419 421 516 420 516 493 417 493 422 515 421 420 515 491 421 444 422 515 421 514 513 421 502 420 491 421 531 497 418 531 496 418 419 422 492 527 497 486 482 493 486 419 421 497 419 443 422 497 419 422 419 512 422 492 422 422 514 494 422 422 420 491 445 421 439 511 533 501 494 513 534 505 494 515 516 420 512 514 497 422 502 420 421 500 422 513 421 514 422 532 421 531 514 419 511 514 515 516 493 420 422 422 422 516 494 422 513 515 421 421 513 494 422 532 421 502 508 422 531 493 422 439 532 515 513 532 439 513 516 494 422 421 422 422 514 421 514 421 421 492 511 515 510 514 420 492 532 422 493 422 512 514 419 515 422 515 420 516 421 516 490 508 421 440 439 422 501 420 422 421 516 422 516 421 515 420 514 513 512 493 513 441 420 514 420 513 492 422 421 530 514 532 498 438 440 512 422 532 493 422 497 513 517 532 516 514 531 519 514 421 422 422 494 422 421 496 531 509 421 514 508 514 513 421 494 422 422 440 422 509 422 530 509 511 422 440 513 493 422 530 509 422 514 421 417 439 421 483 515 505 422 422 421 513 487 505 502 487 422 502 419 497 421 421 440 515 420 421 497 422 422 421 422 508 505 422 512 440 494 487 530 486 513 422 486 505 422 422 505 420 496 420 494 422 421 422 422 512 505 485 504 421 422 506 437 497 511 422 515 498 498 421 421 421 440 420 514 419 487 503 422 494 486 504 495 422 425 512 421 514 440 495 422 421 421 422 420 487 503 514 421 506 487 504 421 421 514 493 421 421 493 419 420 420 493 422 494 422 445 422 422 494 420 510 515 512 502 422 498 438 514 439 496 513 422 422 422 439 496 422 497 419 512 515 514 514 421 441 516 514 515 502 440 513 529 497 422 530 440 497 439 528 497 439 498 421 400 440 399 439 400 486 514 400 514 421 487 510 492 485 424 422 424 513 505 421 421 514 422 508 505 512 440 420 508 504 502 440 493 420 513 420 487 417 419 509 420 513 486 421 529 491 422 514 421 420 440 487 503 421 419 421 513 421 421 485 517 494 440 439 491 492 532 486 421 514 400 400 484 492 493 426 422 494 421 503 420 485 502 419 422 493 421 425 422 494 422 422 505 516 513 421 515 422 421 496 422 513 510 507 422 514 420 512 533 516 514 419 513 518 440 513 440 497 531 514 439 512 514 420 421 440 444 514 438 514 422 440 422 420 422 439 501 492 438 422 421 494 498 422 420 514 516 512 533 420 439 513 515 518 422 422 495 421 498 422 493 494 530 487 511 400 492 425 421 493 420 419 497 514 493 422 512 422 421 514 516 439 420 493 421 513 514 500 512 422 514 436 422 422 493 532 515 531 437 498 438 514 532 487 494 421 503 455 399 400 421 512 516 493 399 514 441 422 422 533 422 422 506 422 513 492 421 421 492 493 422 421 445 421 516 421 516 491 422 443 441 422 506 502 492 420 421 422 422 421 515 422 516 422 422 501 439 498 422 422 493 422 422 422 422 421 487 531 527 506 509 509 498 508 492 419 417 498 440 443 497 422 440 423 516 422 493 421 421 514 421 420 492 514 501 512 421 440 531 441 502 509 440 514 501 492 438 531 508 513 421 486 529 438 494 493 513 400 493 399 512 422 421 492 441 445 421 440 514 517 418 499 422 421 502 509 422 492 494 513 487 504 501 487 422 501 494 493 421 422 515 422 422 486 530 509 514 421 496 493 399 513 421 491 422 514 513 511 512 501 422 492 422 421 508 514 420 502 494 494 420 494 489 421 445 422 514 421 516 490 422 422 515 445 421 440 513 421 505 502 420 515 438 502 422 497 440 530 515 531 440 440 513 400 518 400 531 497 494 482 421 513 422 494 422 420 419 420 514 515 421 493 420 438 441 439 421 505 506 502 493 417 422 420 515 505 422 503 502 506 422 506 493 421 515 439 531 493 440 497 438 514 400 400 534 516 422 421 516 420 514 515 514 514 421 441 440 516 513 421 441 441 422 502 493 422 422 492 420 508 494 532 504 422 493 494 422 493 445 421 441 422 496 513 513 531 419 514 513 441 438 422 502 494 421 491 421 512 420 515 421 518 422 515 422 498 422 515 530 440 512 423 515 494 531 513 532 438 438 487 513 422 518 487 440 503 400 400 494 400 399 513 420 421 493 515 515 494 514 513 492 422 441 533 418 441 422 441 516 515 409 514 420 518 422 422 516 515 503 531

Tree=0
num_leaves=2
num_cat=1
split_feature=24
split_gain=43.2062
threshold=0
decision_type=1
left_child=-1
right_child=-2
leaf_value=0.18679177506729319 0.12968870772140539
leaf_weight=105 439
leaf_count=105 439
internal_value=0.140717
internal_weight=544
internal_count=544
cat_boundaries=0 1
cat_threshold=4
is_linear=0
shrinkage=1


Tree=1
num_leaves=2
num_cat=1
split_feature=24
split_gain=36.5749
threshold=0
decision_type=1
left_child=-1
right_child=-2
leaf_value=0.042392409637244291 -0.010146121312127084
leaf_weight=105 439
leaf_count=105 439
internal_value=0
internal_weight=544
internal_count=544
cat_boundaries=0 1
cat_threshold=4
is_linear=0
shrinkage=0.08


Tree=2
num_leaves=3
num_cat=0
split_feature=1 16
split_gain=32.8814 0.0929114
threshold=0.22500000000000003 13.500000000000002
decision_type=10 2
left_child=1 -1
right_child=-2 -3
leaf_value=-0.009607243884704509 0.036757533291368619 -0.012550535002180974
leaf_weight=295 121 128
leaf_count=295 121 128
internal_value=0 -0.0105195
internal_weight=544 423
internal_count=544 423
is_linear=0
shrinkage=0.08


Tree=3
num_leaves=3
num_cat=1
split_feature=24 10
split_gain=29.7249 0.0150517
threshold=0 287.50000000000006
decision_type=1 2
left_child=-1 -2
right_child=1 -3
leaf_value=0.038216427962174317 -0.0078043302775090998 -0.0095588854276604674
leaf_weight=105 108 331
leaf_count=105 108 331
internal_value=0 -0.00914734
internal_weight=544 439
internal_count=544 439
cat_boundaries=0 1
cat_threshold=4
is_linear=0
shrinkage=0.08


Tree=4
num_leaves=3
num_cat=0
split_feature=1 19
split_gain=26.6626 0.235232
threshold=0.22500000000000003 10.500000000000002
decision_type=10 2
left_child=1 -1
right_child=-2 -3
leaf_value=-0.012157396796907145 0.033097756818047643 -0.0079976221168314224
leaf_weight=148 121 275
leaf_count=148 121 275
internal_value=0 -0.00947449
internal_weight=544 423
internal_count=544 423
is_linear=0
shrinkage=0.08


Tree=5
num_leaves=3
num_cat=2
split_feature=24 0
split_gain=24.2478 0.185091
threshold=0 1
decision_type=1 1
left_child=-1 -2
right_child=1 -3
leaf_value=0.034514663909073678 -0.0072880700326963116 -0.011397607049208782
leaf_weight=105 337 102
leaf_count=105 337 102
internal_value=0 -0.0082635
internal_weight=544 439
internal_count=544 439
cat_boundaries=0 1 2
cat_threshold=4 2
is_linear=0
shrinkage=0.08


Tree=6
num_leaves=3
num_cat=0
split_feature=1 19
split_gain=21.8169 0.36751
threshold=0.22500000000000003 10.500000000000002
decision_type=10 2
left_child=1 -1
right_child=-2 -3
leaf_value=-0.011861439628588195 0.029937660473619582 -0.0067692359032868379
leaf_weight=148 121 275
leaf_count=148 121 275
internal_value=0 -0.0085722
internal_weight=544 423
internal_count=544 423
is_linear=0
shrinkage=0.08


Tree=7
num_leaves=3
num_cat=2
split_feature=24 0
split_gain=19.8274 0.406616
threshold=0 1
decision_type=1 1
left_child=-1 -2
right_child=1 -3
leaf_value=0.03120875011048467 -0.0060828517435283763 -0.011982266601689533
leaf_weight=105 337 102
leaf_count=105 337 102
internal_value=0 -0.00747419
internal_weight=544 439
internal_count=544 439
cat_boundaries=0 1 2
cat_threshold=4 2
is_linear=0
shrinkage=0.08


Tree=8
num_leaves=3
num_cat=0
split_feature=1 19
split_gain=17.9604 0.483756
threshold=0.22500000000000003 10.500000000000002
decision_type=10 2
left_child=1 -1
right_child=-2 -3
leaf_value=-0.011521923760157191 0.027161390658354191 -0.0057328647843104012
leaf_weight=148 121 275
leaf_count=148 121 275
internal_value=0 -0.0077795
internal_weight=544 423
internal_count=544 423
is_linear=0
shrinkage=0.08


Tree=9
num_leaves=3
num_cat=2
split_feature=22 0
split_gain=16.3597 0.72467
threshold=0 1
decision_type=9 1
left_child=-1 -2
right_child=1 -3
leaf_value=0.027506016870536425 -0.0050458267224149722 -0.012720203726612993
leaf_weight=101 337 106
leaf_count=101 337 106
internal_value=0 -0.0067503
internal_weight=544 443
internal_count=544 443
cat_boundaries=0 1 2
cat_threshold=64 2
is_linear=0
shrinkage=0.08


Tree=10
num_leaves=3
num_cat=0
split_feature=1 19
split_gain=14.8761 0.555279
threshold=0.22500000000000003 10.500000000000002
decision_type=10 2
left_child=1 -1
right_child=-2 -3
leaf_value=-0.011034990280444038 0.024758076925941185 -0.0048597241797823324
leaf_weight=148 121 275
leaf_count=148 121 275
internal_value=2.0237e-05 -0.00704134
internal_weight=544 423
internal_count=544 423
is_linear=0
shrinkage=0.08


Tree=11
num_leaves=3
num_cat=1
split_feature=10 0
split_gain=13.7979 1.27445
threshold=5.8744444444444452 0
decision_type=2 1
left_child=-1 -2
right_child=1 -3
leaf_value=0.024491988115708931 -0.0041397470798888942 -0.014485534969293517
leaf_weight=116 327 101
leaf_count=116 327 101
internal_value=1.63958e-05 -0.00660266
internal_weight=544 428
internal_count=544 428
cat_boundaries=0 1
cat_threshold=2
is_linear=0
shrinkage=0.08


Tree=12
num_leaves=3
num_cat=0
split_feature=1 10
split_gain=12.5402 0.680505
threshold=0.22500000000000003 287.50000000000006
decision_type=10 2
left_child=1 -1
right_child=-2 -3
leaf_value=-0.010549874438314368 0.022726749362136391 -0.0038775497640997614
leaf_weight=163 121 260
leaf_count=163 121 260
internal_value=1.28177e-05 -0.00646948
internal_weight=544 423
internal_count=544 423
is_linear=0
shrinkage=0.08


Tree=13
num_leaves=4
num_cat=2
split_feature=22 0 16
split_gain=11.4522 1.14201 0.00414973
threshold=0 1 11.500000000000002
decision_type=9 1 2
left_child=-1 2 -2
right_child=1 -3 -4
leaf_value=0.023040799190073159 -0.0039092027973372523 -0.013013366678612031 -0.002919954696450074
leaf_weight=101 167 106 170
leaf_count=101 167 106 170
internal_value=9.56167e-06 -0.00562046 -0.00343492
internal_weight=544 443 337
internal_count=544 443 337
cat_boundaries=0 1 2
cat_threshold=64 2
is_linear=0
shrinkage=0.08


Tree=14
num_leaves=3
num_cat=0
split_feature=1 10
split_gain=10.5063 0.715344
threshold=0.22500000000000003 287.50000000000006
decision_type=10 2
left_child=1 -1
right_child=-2 -3
leaf_value=-0.010070193931049251 0.020830884805698221 -0.0032404725953953761
leaf_weight=163 121 260
leaf_count=163 121 260
internal_value=3.91924e-05 -0.00589292
internal_weight=544 423
internal_count=544 423
is_linear=0
shrinkage=0.08


Tree=15
num_leaves=3
num_cat=0
split_feature=8 19
split_gain=10.8076 15.8794
threshold=0.58500000000000008 10.500000000000002
decision_type=2 2
left_child=1 -1
right_child=-2 -3
leaf_value=0.032355667480988316 -0.017413705316588032 -0.0032189876380694085
leaf_weight=114 160 270
leaf_count=114 160 270
internal_value=3.38152e-05 0.00732708
internal_weight=544 384
internal_count=544 384
is_linear=0
shrinkage=0.08


Tree=16
num_leaves=3
num_cat=1
split_feature=10 0
split_gain=9.48942 1.25207
threshold=5.8744444444444452 0
decision_type=2 1
left_child=-1 -2
right_child=1 -3
leaf_value=0.020329086128349556 -0.0030193058111841835 -0.013262622730196643
leaf_weight=116 327 101
leaf_count=116 327 101
internal_value=2.893e-05 -0.00545776
internal_weight=544 428
internal_count=544 428
cat_boundaries=0 1
cat_threshold=2
is_linear=0
shrinkage=0.08


Tree=17
num_leaves=3
num_cat=0
split_feature=8 19
split_gain=9.0626 12.875
threshold=0.58500000000000008 10.500000000000002
decision_type=2 2
left_child=1 -1
right_child=-2 -3
leaf_value=0.02924140266636607 -0.015951468679474563 -0.0027892637625750415
leaf_weight=114 160 270
leaf_count=114 160 270
internal_value=2.43223e-05 0.00670415
internal_weight=544 384
internal_count=544 384
is_linear=0
shrinkage=0.08


Tree=18
num_leaves=3
num_cat=0
split_feature=1 19
split_gain=8.89433 1.55403
threshold=0.17500000000000002 10.500000000000002
decision_type=10 2
left_child=1 -1
right_child=-2 -3
leaf_value=-0.013235217067778884 0.017157569134062526 -0.0025662052027828736
leaf_weight=131 143 270
leaf_count=131 143 270
internal_value=2.01786e-05 -0.00607397
internal_weight=544 401
internal_count=544 401
is_linear=0
shrinkage=0.08


Tree=19
num_leaves=3
num_cat=0
split_feature=8 19
split_gain=8.08868 10.7909
threshold=0.58500000000000008 10.500000000000002
decision_type=2 2
left_child=1 -1
right_child=-2 -3
leaf_value=0.026960481197608344 -0.015075935182126146 -0.0023609848677427934
leaf_weight=114 160 270
leaf_count=114 160 270
internal_value=1.62317e-05 0.00632775
internal_weight=544 384
internal_count=544 384
is_linear=0
shrinkage=0.08


Tree=20
num_leaves=3
num_cat=1
split_feature=0 19
split_gain=7.69454 1.73436
threshold=0 10.500000000000002
decision_type=1 2
left_child=-1 -2
right_child=1 -3
leaf_value=0.015512561223330381 -0.013615482246084847 -0.0021721759776149314
leaf_weight=149 125 270
leaf_count=149 125 270
internal_value=1.27207e-05 -0.00581625
internal_weight=544 395
internal_count=544 395
cat_boundaries=0 1
cat_threshold=1
is_linear=0
shrinkage=0.08


Tree=21
num_leaves=4
num_cat=2
split_feature=24 0 16
split_gain=7.46715 0.750279 0.0095188
threshold=0 1 11.500000000000002
decision_type=1 1 2
left_child=-1 2 -2
right_child=1 -3 -4
leaf_value=0.019178395914418941 -0.0021205842354959678 -0.010596121370091844 -0.0032354513960050043
leaf_weight=105 167 102 170
leaf_count=105 167 102 170
internal_value=9.34665e-06 -0.00456061 -0.0027075
internal_weight=544 439 337
internal_count=544 439 337
cat_boundaries=0 1 2
cat_threshold=4 2
is_linear=0
shrinkage=0.08


Tree=22
num_leaves=3
num_cat=0
split_feature=8 19
split_gain=7.24996 8.64928
threshold=0.58500000000000008 10.500000000000002
decision_type=2 2
left_child=1 -1
right_child=-2 -3
leaf_value=0.024453155967773418 -0.014282419368540919 -0.0017945406296018403
leaf_weight=114 160 270
leaf_count=114 160 270
internal_value=5.11731e-06 0.00598125
internal_weight=544 384
internal_count=544 384
is_linear=0
shrinkage=0.08


Tree=23
num_leaves=3
num_cat=1
split_feature=0 19
split_gain=6.76197 1.89924
threshold=0 10.500000000000002
decision_type=1 2
left_child=-1 -2
right_child=1 -3
leaf_value=0.014533651365600602 -0.013618508599263777 -0.0016510304965848439
leaf_weight=149 125 270
leaf_count=149 125 270
internal_value=2.47869e-06 -0.00546094
internal_weight=544 395
internal_count=544 395
cat_boundaries=0 1
cat_threshold=1
is_linear=0
shrinkage=0.08


Tree=24
num_leaves=3
num_cat=0
split_feature=8 19
split_gain=6.4606 7.34068
threshold=0.58500000000000008 10.500000000000002
decision_type=2 2
left_child=1 -1
right_child=-2 -3
leaf_value=0.022659430125635201 -0.013486602601829654 -0.0015189969920032954
leaf_weight=114 160 270
leaf_count=114 160 270
internal_value=0 0.00564218
internal_weight=544 384
internal_count=544 384
is_linear=0
shrinkage=0.08


Tree=25
num_leaves=4
num_cat=1
split_feature=10 0 16
split_gain=6.15211 0.651857 0.0667267
threshold=5.8744444444444452 0 11.500000000000002
decision_type=2 1 2
left_child=-1 2 -2
right_child=1 -3 -4
leaf_value=0.016345865123237033 -0.0013749561215532123 -0.010060514217550276 -0.0037736135385908645
leaf_weight=116 157 101 170
leaf_count=116 157 101 170
internal_value=0 -0.00441723 -0.00264719
internal_weight=544 428 327
internal_count=544 428 327
cat_boundaries=0 1
cat_threshold=2
is_linear=0
shrinkage=0.08


Tree=26
num_leaves=4
num_cat=1
split_feature=0 19 16
split_gain=5.89535 1.93062 0.0016935
threshold=0 10.500000000000002 12.500000000000002
decision_type=1 2 2
left_child=-1 -2 -3
right_child=1 2 -4
leaf_value=0.013563452940171873 -0.013328454440160335 -0.0015042967141607596 -0.00080814450907214089
leaf_weight=149 125 166 104
leaf_count=149 125 166 104
internal_value=0 -0.005106 -0.00126617
internal_weight=544 395 270
internal_count=544 395 270
cat_boundaries=0 1
cat_threshold=1
is_linear=0
shrinkage=0.08


Tree=27
num_leaves=4
num_cat=0
split_feature=8 19 16
split_gain=5.71067 5.98657 0.00120013
threshold=0.58500000000000008 10.500000000000002 12.500000000000002
decision_type=2 2 2
left_child=1 -1 -3
right_child=-2 2 -4
leaf_value=0.020664356369182374 -0.012687531255841775 -0.0013840253951453 -0.00074355508647250745
leaf_weight=114 160 166 104
leaf_count=114 160 166 104
internal_value=0 0.00529683 -0.00116731
internal_weight=544 384 270
internal_count=544 384 270
is_linear=0
shrinkage=0.08


Tree=28
num_leaves=4
num_cat=2
split_feature=24 22 16
split_gain=5.22489 0.40195 0.03847
threshold=0 1 11.500000000000002
decision_type=1 9 2
left_child=-1 2 -2
right_child=1 -3 -4
leaf_value=0.016025680372762634 -0.0013352647232402824 -0.0081316865835809153 -0.0031637091171328093
leaf_weight=105 165 100 174
leaf_count=105 165 100 174
internal_value=0 -0.00383182 -0.00223218
internal_weight=544 439 339
internal_count=544 439 339
cat_boundaries=0 1 2
cat_threshold=4 4
is_linear=0
shrinkage=0.08


Tree=29
num_leaves=4
num_cat=1
split_feature=0 19 16
split_gain=5.16625 1.98485 0.0031222
threshold=0 10.500000000000002 12.500000000000002
decision_type=1 2 2
left_child=-1 -2 -3
right_child=1 2 -4
leaf_value=0.01267726437495378 -0.01313466383112992 -0.0011600663653512646 -0.0004274563673135756
leaf_weight=149 125 166 104
leaf_count=149 125 166 104
internal_value=0 -0.00479962 -0.000907757
internal_weight=544 395 270
internal_count=544 395 270
cat_boundaries=0 1
cat_threshold=1
is_linear=0
shrinkage=0.08


Tree=30
num_leaves=4
num_cat=0
split_feature=8 19 16
split_gain=5.09588 4.8625 0.00247556
threshold=0.58500000000000008 10.500000000000002 12.500000000000002
decision_type=2 2 2
left_child=1 -1 -3
right_child=-2 2 -4
leaf_value=0.01883463206153288 -0.012003524332754617 -0.0010673168956676093 -0.00039329269942071552
leaf_weight=114 160 166 104
leaf_count=114 160 166 104
internal_value=0 0.00498518 -0.000837553
internal_weight=544 384 270
internal_count=544 384 270
is_linear=0
shrinkage=0.08


Tree=31
num_leaves=4
num_cat=1
split_feature=0 19 16
split_gain=4.51339 1.80899 0.00194112
threshold=0 10.500000000000002 12.500000000000002
decision_type=1 2 2
left_child=-1 -2 -3
right_child=1 2 -4
leaf_value=0.011845725247252914 -0.012446499175543219 -0.00098198293098784016 -0.00036185949450353384
leaf_weight=149 125 166 104
leaf_count=149 125 166 104
internal_value=0 -0.00448958 -0.000772962
internal_weight=544 395 270
internal_count=544 395 270
cat_boundaries=0 1
cat_threshold=1
is_linear=0
shrinkage=0.08


Tree=32
num_leaves=4
num_cat=0
split_feature=8 19 16
split_gain=4.50295 4.17991 0.00150063
threshold=0.58500000000000008 10.500000000000002 12.500000000000002
decision_type=2 2 2
left_child=1 -1 -3
right_child=-2 2 -4
leaf_value=0.017523514755350994 -0.011286873741123096 -0.00090347161988656546 -0.00033293852784763037
leaf_weight=114 160 166 104
leaf_count=114 160 166 104
internal_value=-5.89945e-07 0.00468291 -0.000713534
internal_weight=544 384 270
internal_count=544 384 270
is_linear=0
shrinkage=0.08


Tree=33
num_leaves=4
num_cat=2
split_feature=24 22 16
split_gain=4.42241 0.363614 0.062212
threshold=0 1 11.500000000000002
decision_type=1 9 2
left_child=-1 2 -2
right_child=1 -3 -4
leaf_value=0.014724398986263631 -0.00090689547443429611 -0.0076275604086624409 -0.0031643122546310609
leaf_weight=105 165 100 174
leaf_count=105 165 100 174
internal_value=-1.64542e-06 -0.00354459 -0.00202989
internal_weight=544 439 339
internal_count=544 439 339
cat_boundaries=0 1 2
cat_threshold=4 4
is_linear=0
shrinkage=0.08


Tree=34
num_leaves=4
num_cat=1
split_feature=0 19 16
split_gain=3.97852 1.81212 0.00368582
threshold=0 10.500000000000002 12.500000000000002
decision_type=1 2 2
left_child=-1 -2 -3
right_child=1 2 -4
leaf_value=0.011106263355500022 -0.012192893824298128 -0.00075225556461047433 -4.9997280055691029e-05
leaf_weight=149 125 166 104
leaf_count=149 125 166 104
internal_value=-1.38605e-05 -0.00423054 -0.000511493
internal_weight=544 395 270
internal_count=544 395 270
cat_boundaries=0 1
cat_threshold=1
is_linear=0
shrinkage=0.08


Tree=35
num_leaves=4
num_cat=0
split_feature=8 19 16
split_gain=3.99734 3.40957 0.00302568
threshold=0.58500000000000008 10.500000000000002 12.500000000000002
decision_type=2 2 2
left_child=1 -1 -3
right_child=-2 2 -4
leaf_value=0.015994622307020673 -0.010648540214031615 -0.00069211133833680782 -4.60013239774191e-05
leaf_weight=114 160 166 104
leaf_count=114 160 166 104
internal_value=-1.39557e-05 0.00439791 -0.000472967
internal_weight=544 384 270
internal_count=544 384 270
is_linear=0
shrinkage=0.08


Tree=36
num_leaves=4
num_cat=2
split_feature=24 22 16
split_gain=3.77281 0.318103 0.0652086
threshold=0 1 11.500000000000002
decision_type=1 9 2
left_child=-1 2 -2
right_child=1 -3 -4
leaf_value=0.013586434791844647 -0.00072145042443441524 -0.0071058542866743665 -0.0030215807976324218
leaf_weight=105 165 100 174
leaf_count=105 165 100 174
internal_value=-1.39477e-05 -0.00328746 -0.00187101
internal_weight=544 439 339
internal_count=544 439 339
cat_boundaries=0 1 2
cat_threshold=4 4
is_linear=0
shrinkage=0.08


Tree=37
num_leaves=4
num_cat=1
split_feature=0 19 16
split_gain=3.51766 1.7806 0.00465814
threshold=0 10.500000000000002 12.500000000000002
decision_type=1 2 2
left_child=-1 -2 -3
right_child=1 2 -4
leaf_value=0.010430904104855938 -0.011881908191223558 -0.0005729445680069822 4.860986850790744e-05
leaf_weight=149 125 166 104
leaf_count=149 125 166 104
internal_value=-2.44159e-05 -0.00399021 -0.000303983
internal_weight=544 395 270
internal_count=544 395 270
cat_boundaries=0 1
cat_threshold=1
is_linear=0
shrinkage=0.08


Tree=38
num_leaves=4
num_cat=0
split_feature=8 19 16
split_gain=3.53887 2.79391 0.00399874
threshold=0.58500000000000008 10.500000000000002 12.500000000000002
decision_type=2 2 2
left_child=1 -1 -3
right_child=-2 2 -4
leaf_value=0.014626079438340758 -0.010028306199173716 -0.00052713661277997497 4.4724802977757081e-05
leaf_weight=114 160 166 104
leaf_count=114 160 166 104
internal_value=-2.13154e-05 0.00412896 -0.00027731
internal_weight=544 384 270
internal_count=544 384 270
is_linear=0
shrinkage=0.08


Tree=39
num_leaves=4
num_cat=1
split_feature=24 16 17
split_gain=3.23354 0.293897 0.000137474
threshold=0 12.500000000000002 2.5000000000000004
decision_type=1 2 2
left_child=-1 -2 -3
right_child=1 2 -4
leaf_value=0.012571430076285842 -0.00050453809970321098 -0.0054304013809725335 -0.0042984154936930698
leaf_weight=105 179 101 159
leaf_count=105 179 101 159
internal_value=-1.83734e-05 -0.00305 -0.00477082
internal_weight=544 439 260
internal_count=544 439 260
cat_boundaries=0 1
cat_threshold=4
is_linear=0
shrinkage=0.08


Tree=40
num_leaves=4
num_cat=0
split_feature=8 10 16
split_gain=3.08524 2.33698 0.0109706
threshold=0.58500000000000008 335.50000000000006 11.500000000000002
decision_type=2 2 2
left_child=1 -1 -3
right_child=-2 2 -4
leaf_value=0.012095073093949344 -0.0093626476054560898 -0.00032096673777788404 -0.0015097605718390925
leaf_weight=140 160 144 100
leaf_count=140 160 144 100
internal_value=-1.80454e-05 0.00385613 -0.00084137
internal_weight=544 384 244
internal_count=544 384 244
is_linear=0
shrinkage=0.08


Tree=41
num_leaves=4
num_cat=1
split_feature=0 19 16
split_gain=3.17364 1.68546 0.00780321
threshold=0 10.500000000000002 12.500000000000002
decision_type=1 2 2
left_child=-1 -2 -3
right_child=1 2 -4
leaf_value=0.0099124249895893423 -0.01146285790869658 -0.0005565311369911724 0.00029620550504879355
leaf_weight=149 125 166 104
leaf_count=149 125 166 104
internal_value=-1.77647e-05 -0.00378539 -0.000198463
internal_weight=544 395 270
internal_count=544 395 270
cat_boundaries=0 1
cat_threshold=1
is_linear=0
shrinkage=0.08


Tree=42
num_leaves=4
num_cat=2
split_feature=24 22 16
split_gain=2.79977 0.271522 0.0438725
threshold=0 1 11.500000000000002
decision_type=1 9 2
left_child=-1 2 -2
right_child=1 -3 -4
leaf_value=0.01169875792769111 -0.00058823955661054818 -0.0063515350111607097 -0.0024892829196385309
leaf_weight=105 165 100 174
leaf_count=105 165 100 174
internal_value=-1.5194e-05 -0.00283718 -0.00154255
internal_weight=544 439 339
internal_count=544 439 339
cat_boundaries=0 1 2
cat_threshold=4 4
is_linear=0
shrinkage=0.08


Tree=43
num_leaves=4
num_cat=0
split_feature=8 19 16
split_gain=2.72909 1.96307 0.0089329
threshold=0.58500000000000008 10.500000000000002 12.500000000000002
decision_type=2 2 2
left_child=1 -1 -3
right_child=-2 2 -4
leaf_value=0.012416646324365834 -0.008814012106649954 -0.00045945300898373955 0.00047445125333914727
leaf_weight=114 160 166 104
leaf_count=114 160 166 104
internal_value=-2.44601e-05 0.00361837 -7.00658e-05
internal_weight=544 384 270
internal_count=544 384 270
is_linear=0
shrinkage=0.08


Tree=44
num_leaves=4
num_cat=1
split_feature=0 19 16
split_gain=2.81454 1.61196 0.00757447
threshold=0 10.500000000000002 12.500000000000002
decision_type=1 2 2
left_child=-1 -2 -3
right_child=1 2 -4
leaf_value=0.0093293728306139984 -0.011077649031879662 -0.00042271888171743733 0.00043653161929675189
leaf_weight=149 125 166 104
leaf_count=149 125 166 104
internal_value=-2.12738e-05 -0.0035702 -6.20906e-05
internal_weight=544 395 270
internal_count=544 395 270
cat_boundaries=0 1
cat_threshold=1
is_linear=0
shrinkage=0.08


Tree=45
num_leaves=4
num_cat=2
split_feature=24 22 16
split_gain=2.41685 0.237119 0.0442668
threshold=0 1 11.500000000000002
decision_type=1 9 2
left_child=-1 2 -2
right_child=1 -3 -4
leaf_value=0.010863959458288866 -0.00047175418821331013 -0.0059263264813496789 -0.0023747845536706644
leaf_weight=105 165 100 174
leaf_count=105 165 100 174
internal_value=-1.84213e-05 -0.00264137 -0.00143035
internal_weight=544 439 339
internal_count=544 439 339
cat_boundaries=0 1 2
cat_threshold=4 4
is_linear=0
shrinkage=0.08


Tree=46
num_leaves=4
num_cat=0
split_feature=8 19 16
split_gain=2.4099 1.6217 0.00884853
threshold=0.58500000000000008 10.500000000000002 12.500000000000002
decision_type=2 2 2
left_child=1 -1 -3
right_child=-2 2 -4
leaf_value=0.011391845333482172 -0.0082872334648875397 -0.00034594986960067583 0.00059417222171134385
leaf_weight=114 160 166 104
leaf_count=114 160 166 104
internal_value=-2.68066e-05 0.00339547 0
internal_weight=544 384 270
internal_count=544 384 270
is_linear=0
shrinkage=0.08


Tree=47
num_leaves=4
num_cat=1
split_feature=0 19 16
split_gain=2.5002 1.52589 0.00749048
threshold=0 10.500000000000002 12.500000000000002
decision_type=1 2 2
left_child=-1 -2 -3
right_child=1 2 -4
leaf_value=0.0087887286488279089 -0.010673005604129329 -0.0003182905307460144 0.00054668411655453509
leaf_weight=149 125 166 104
leaf_count=149 125 166 104
internal_value=-2.34365e-05 -0.00336915 0
internal_weight=544 395 270
internal_count=544 395 270
cat_boundaries=0 1
cat_threshold=1
is_linear=0
shrinkage=0.08


Tree=48
num_leaves=4
num_cat=0
split_feature=8 19 16
split_gain=2.11687 1.42924 0.00634087
threshold=0.58500000000000008 10.500000000000002 12.500000000000002
decision_type=2 2 2
left_child=1 -1 -3
right_child=-2 2 -4
leaf_value=0.010693055434147588 -0.0077632900946852127 -0.00029284262516654128 0.00050299139369518913
leaf_weight=114 160 166 104
leaf_count=114 160 166 104
internal_value=-2.04096e-05 0.00318614 0
internal_weight=544 384 270
internal_count=544 384 270
is_linear=0
shrinkage=0.08


Tree=49
num_leaves=4
num_cat=1
split_feature=0 19 16
split_gain=2.19658 1.3365 0.00536769
threshold=0 10.500000000000002 12.500000000000002
decision_type=1 2 2
left_child=-1 -2 -3
right_child=1 2 -4
leaf_value=0.0082413169567733709 -0.0099900563210129842 -0.00026942930723873262 0.00046279074722591442
leaf_weight=149 125 166 104
leaf_count=149 125 166 104
internal_value=-1.75545e-05 -0.00315447 0
internal_weight=544 395 270
internal_count=544 395 270
cat_boundaries=0 1
cat_threshold=1
is_linear=0
shrinkage=0.08


Tree=50
num_leaves=3
num_cat=1
split_feature=24 16
split_gain=2.13703 0.232204
threshold=0 12.500000000000002
decision_type=1 2
left_child=-1 -2
right_child=1 -3
leaf_value=0.01021716274952004 -0.00021701938432518088 -0.0040104394924269414
leaf_weight=105 179 260
leaf_count=105 179 260
internal_value=-1.49967e-05 -0.00248231
internal_weight=544 439
internal_count=544 439
cat_boundaries=0 1
cat_threshold=4
is_linear=0
shrinkage=0.08


Tree=51
num_leaves=4
num_cat=0
split_feature=8 10 16
split_gain=1.91558 1.20955 0.0049759
threshold=0.58500000000000008 335.50000000000006 11.500000000000002
decision_type=2 2 2
left_child=1 -1 -3
right_child=-2 2 -4
leaf_value=0.008962567316037175 -0.0073800009963737295 0 -0.00076843367694141157
leaf_weight=140 160 144 100
leaf_count=140 160 144 100
internal_value=-1.3709e-05 0.00303587 -0.000334193
internal_weight=544 384 244
internal_count=544 384 244
is_linear=0
shrinkage=0.08


Tree=52
num_leaves=4
num_cat=1
split_feature=0 19 16
split_gain=1.91935 1.19011 0.0093907
threshold=0 10.500000000000002 12.500000000000002
decision_type=1 2 2
left_child=-1 -2 -3
right_child=1 2 -4
leaf_value=0.0077058772593836594 -0.0093970631890826755 -0.00032982117422979183 0.00063574716552562379
leaf_weight=149 125 166 104
leaf_count=149 125 166 104
internal_value=-1.32849e-05 -0.00294653 1.25805e-05
internal_weight=544 395 270
internal_count=544 395 270
cat_boundaries=0 1
cat_threshold=1
is_linear=0
shrinkage=0.08


Tree=53
num_leaves=4
num_cat=2
split_feature=24 22 16
split_gain=1.8643 0.20082 0.0323782
threshold=0 1 11.500000000000002
decision_type=1 9 2
left_child=-1 2 -2
right_child=1 -3 -4
leaf_value=0.0095449270757462842 -0.00038034405029615192 -0.0053330882704333759 -0.0020173756904164008
leaf_weight=105 165 100 174
leaf_count=105 165 100 174
internal_value=-1.10662e-05 -0.00231654 -0.00120888
internal_weight=544 439 339
internal_count=544 439 339
cat_boundaries=0 1 2
cat_threshold=4 4
is_linear=0
shrinkage=0.08


Tree=54
num_leaves=4
num_cat=0
split_feature=8 19 16
split_gain=1.68322 1.0465 0.0106133
threshold=0.58500000000000008 10.500000000000002 12.500000000000002
decision_type=2 2 2
left_child=1 -1 -3
right_child=-2 2 -4
leaf_value=0.0092629315255505287 -0.0069251329589083681 -0.0002682712946080394 0.00074871936918564658
leaf_weight=114 160 166 104
leaf_count=114 160 166 104
internal_value=-1.9172e-05 0.00283854 9.3972e-05
internal_weight=544 384 270
internal_count=544 384 270
is_linear=0
shrinkage=0.08


Tree=55
num_leaves=4
num_cat=1
split_feature=0 19 16
split_gain=1.71326 1.12206 0.00900154
threshold=0 10.500000000000002 12.500000000000002
decision_type=1 2 2
left_child=-1 -2 -3
right_child=1 2 -4
leaf_value=0.0072757221771357931 -0.0090524355460890396 -0.00024682250313465314 0.00068887935351941826
leaf_weight=149 125 166 104
leaf_count=149 125 166 104
internal_value=-1.64205e-05 -0.00278852 8.40989e-05
internal_weight=544 395 270
internal_count=544 395 270
cat_boundaries=0 1
cat_threshold=1
is_linear=0
shrinkage=0.08


Tree=56
num_leaves=3
num_cat=1
split_feature=23 16
split_gain=1.64517 0.225359
threshold=0 12.500000000000002
decision_type=9 2
left_child=1 -1
right_child=-2 -3
leaf_value=-0.00026967797633675359 0.0076711844118500898 -0.0040833536734967051
leaf_weight=175 125 244
leaf_count=175 125 244
internal_value=-1.39501e-05 -0.00245157
internal_weight=544 419
internal_count=544 419
cat_boundaries=0 1
cat_threshold=1026
is_linear=0
shrinkage=0.08


Tree=57
num_leaves=4
num_cat=0
split_feature=8 19 16
split_gain=1.53612 0.881585 0.0141058
threshold=0.58500000000000008 10.500000000000002 12.500000000000002
decision_type=2 2 2
left_child=1 -1 -3
right_child=-2 2 -4
leaf_value=0.0086254529802554762 -0.0065995574582002822 -0.00021317659650157191 0.00095114319428701345
leaf_weight=114 160 166 104
leaf_count=114 160 166 104
internal_value=-1.50632e-06 0.00272786 0.00020587
internal_weight=544 384 270
internal_count=544 384 270
is_linear=0
shrinkage=0.08


Tree=58
num_leaves=4
num_cat=1
split_feature=0 19 16
split_gain=1.47048 1.03384 0.0119787
threshold=0 10.500000000000002 12.500000000000002
decision_type=1 2 2
left_child=-1 -2 -3
right_child=1 2 -4
leaf_value=0.006754557082590683 -0.0085828870472957584 -0.00019613274033890659 0.00087512481989881141
leaf_weight=149 125 166 104
leaf_count=149 125 166 104
internal_value=-1.68835e-07 -0.00256947 0.000187052
internal_weight=544 395 270
internal_count=544 395 270
cat_boundaries=0 1
cat_threshold=1
is_linear=0
shrinkage=0.08


Tree=59
num_leaves=3
num_cat=1
split_feature=22 16
split_gain=1.45605 0.182339
threshold=0 11.500000000000002
decision_type=9 2
left_child=1 -1
right_child=-2 -3
leaf_value=-0.00015596403186903397 0.0074853571302531579 -0.0035980948532343092
leaf_weight=167 118 259
leaf_count=167 118 259
internal_value=0 -0.00221584
internal_weight=544 426
internal_count=544 426
cat_boundaries=0 1
cat_threshold=20
is_linear=0
shrinkage=0.08


Tree=60
num_leaves=4
num_cat=0
split_feature=8 19 16
split_gain=1.38517 0.745892 0.0166003
threshold=0.58500000000000008 10.500000000000002 12.500000000000002
decision_type=2 2 2
left_child=1 -1 -3
right_child=-2 2 -4
leaf_value=0.0080287995472171671 -0.0062542775386873455 -0.00017534264024125033 0.0010842356208880055
leaf_weight=114 160 166 104
leaf_count=114 160 166 104
internal_value=0 0.00260305 0.000280431
internal_weight=544 384 270
internal_count=544 384 270
is_linear=0
shrinkage=0.08


Tree=61
num_leaves=3
num_cat=1
split_feature=23 16
split_gain=1.2794 0.178374
threshold=0 12.500000000000002
decision_type=9 2
left_child=1 -1
right_child=-2 -3
leaf_value=-0.00019302233357912198 0.0067869652570573423 -0.0035905787940581574
leaf_weight=175 125 244
leaf_count=175 125 244
internal_value=0 -0.00213996
internal_weight=544 419
internal_count=544 419
cat_boundaries=0 1
cat_threshold=1026
is_linear=0
shrinkage=0.08


Tree=62
num_leaves=4
num_cat=1
split_feature=0 19 16
split_gain=1.23906 0.996956 0.0213796
threshold=0 10.500000000000002 12.500000000000002
decision_type=1 2 2
left_child=-1 -2 -3
right_child=1 2 -4
leaf_value=0.0062205865017764929 -0.0082450070288732098 -0.00015261482803990943 0.0012765753864669434
leaf_weight=149 125 166 104
leaf_count=149 125 166 104
internal_value=0 -0.00233842 0.000368538
internal_weight=544 395 270
internal_count=544 395 270
cat_boundaries=0 1
cat_threshold=1
is_linear=0
shrinkage=0.08


Tree=63
num_leaves=4
num_cat=0
split_feature=8 19 16
split_gain=1.25275 0.63599 0.0181661
threshold=0.58500000000000008 10.500000000000002 12.500000000000002
decision_type=2 2 2
left_child=1 -1 -3
right_child=-2 2 -4
leaf_value=0.0074952188429343513 -0.0059391924219530578 -0.00014041298920763036 0.0011745474879038553
leaf_weight=114 160 166 104
leaf_count=114 160 166 104
internal_value=0 0.00248412 0.000336719
internal_weight=544 384 270
internal_count=544 384 270
is_linear=0
shrinkage=0.08


Tree=64
num_leaves=3
num_cat=1
split_feature=23 16
split_gain=1.13024 0.160412
threshold=0 12.500000000000002
decision_type=9 2
left_child=1 -1
right_child=-2 -3
leaf_value=-0.00015469173155618627 0.0063867001623179988 -0.0033785800065651433
leaf_weight=175 125 244
leaf_count=175 125 244
internal_value=0 -0.00200372
internal_weight=544 419
internal_count=544 419
cat_boundaries=0 1
cat_threshold=1026
is_linear=0
shrinkage=0.08


Tree=65
num_leaves=3
num_cat=0
split_feature=8 16
split_gain=1.10294 0.603721
threshold=0.58500000000000008 12.500000000000002
decision_type=2 2
left_child=1 -1
right_child=-2 -3
leaf_value=-0.00083024773514510635 -0.0055649917238135404 0.0054821177944157128
leaf_weight=190 160 194
leaf_count=190 160 194
internal_value=0 0.00233858
internal_weight=544 384
internal_count=544 384
is_linear=0
shrinkage=0.08


Tree=66
num_leaves=4
num_cat=1
split_feature=0 19 16
split_gain=1.15846 0.87951 0.00999566
threshold=0 10.500000000000002 12.500000000000002
decision_type=1 2 2
left_child=-1 -2 -3
right_child=1 2 -4
leaf_value=0.0060196009158368568 -0.0078037599398554282 -5.6740146989315693e-05 0.00090504802205205309
leaf_weight=149 125 166 104
leaf_count=149 125 166 104
internal_value=0 -0.00225629 0.000284306
internal_weight=544 395 270
internal_count=544 395 270
cat_boundaries=0 1
cat_threshold=1
is_linear=0
shrinkage=0.08


Tree=67
num_leaves=3
num_cat=1
split_feature=22 16
split_gain=1.04929 0.147268
threshold=0 11.500000000000002
decision_type=9 2
left_child=1 -1
right_child=-2 -3
leaf_value=-2.7476377308118968e-06 0.006375443480478471 -0.0030978952622848421
leaf_weight=167 118 259
leaf_count=167 118 259
internal_value=0 -0.00185995
internal_weight=544 426
internal_count=544 426
cat_boundaries=0 1
cat_threshold=20
is_linear=0
shrinkage=0.08


Tree=68
num_leaves=3
num_cat=0
split_feature=8 16
split_gain=0.99221 0.565359
threshold=0.58500000000000008 12.500000000000002
decision_type=2 2
left_child=1 -1
right_child=-2 -3
leaf_value=-0.0008425473681269415 -0.0052732854465407783 0.0052654954814867908
leaf_weight=190 160 194
leaf_count=190 160 194
internal_value=2.96162e-06 0.00222303
internal_weight=544 384
internal_count=544 384
is_linear=0
shrinkage=0.08


Tree=69
num_leaves=4
num_cat=1
split_feature=0 19 16
split_gain=1.03986 0.760662 0.00473584
threshold=0 10.500000000000002 12.500000000000002
decision_type=1 2 2
left_child=-1 -2 -3
right_child=1 2 -4
leaf_value=0.0057076306708062118 -0.0072920802981256971 0 0.00065219210759592566
leaf_weight=149 125 166 104
leaf_count=149 125 166 104
internal_value=3.59602e-07 -0.00213316 0.000227424
internal_weight=544 395 270
internal_count=544 395 270
cat_boundaries=0 1
cat_threshold=1
is_linear=0
shrinkage=0.08


Tree=70
num_leaves=3
num_cat=1
split_feature=23 16
split_gain=0.968952 0.164078
threshold=0 12.500000000000002
decision_type=9 2
left_child=1 -1
right_child=-2 -3
leaf_value=0 0.0059220032524445049 -0.003231051876875452
leaf_weight=175 125 244
leaf_count=175 125 244
internal_value=0 -0.00184667
internal_weight=544 419
internal_count=544 419
cat_boundaries=0 1
cat_threshold=1026
is_linear=0
shrinkage=0.08


Tree=71
num_leaves=3
num_cat=0
split_feature=8 16
split_gain=0.901124 0.534729
threshold=0.58500000000000008 12.500000000000002
decision_type=2 2
left_child=1 -1
right_child=-2 -3
leaf_value=-0.00085780775920144513 -0.0050210710056940522 0.0050821645981269916
leaf_weight=190 160 194
leaf_count=190 160 194
internal_value=6.44261e-06 0.00212283
internal_weight=544 384
internal_count=544 384
is_linear=0
shrinkage=0.08


Tree=72
num_leaves=4
num_cat=1
split_feature=0 19 16
split_gain=0.928382 0.660602 0.00175794
threshold=0 10.500000000000002 12.500000000000002
decision_type=1 2 2
left_child=-1 -2 -3
right_child=1 2 -4
leaf_value=0.0053970253266678973 -0.0068191000857322727 0 0.0004450860552983601
leaf_weight=149 125 166 104
leaf_count=149 125 166 104
internal_value=3.56305e-06 -0.00201154 0.00018627
internal_weight=544 395 270
internal_count=544 395 270
cat_boundaries=0 1
cat_threshold=1
is_linear=0
shrinkage=0.08


Tree=73
num_leaves=3
num_cat=1
split_feature=24 16
split_gain=0.901459 0.1333
threshold=0 12.500000000000002
decision_type=1 2
left_child=-1 -2
right_child=1 -3
leaf_value=0.0066736882753478822 6.2451958448310452e-05 -0.0027316256945573943
leaf_weight=105 179 260
leaf_count=105 179 260
internal_value=3.84845e-06 -0.00157438
internal_weight=544 439
internal_count=544 439
cat_boundaries=0 1
cat_threshold=4
is_linear=0
shrinkage=0.08


Tree=74
num_leaves=3
num_cat=0
split_feature=8 16
split_gain=0.810085 0.501899
threshold=0.58500000000000008 12.500000000000002
decision_type=2 2
left_child=1 -1
right_child=-2 -3
leaf_value=-0.00087587979715758406 -0.0047624419141865616 0.0048785687142014816
leaf_weight=190 160 194
leaf_count=190 160 194
internal_value=3.5995e-06 0.002011
internal_weight=544 384
internal_count=544 384
is_linear=0
shrinkage=0.08


Tree=75
num_leaves=4
num_cat=1
split_feature=0 19 16
split_gain=0.839686 0.582082 5.92075e-05
threshold=0 10.500000000000002 12.500000000000002
decision_type=1 2 2
left_child=-1 -2 -3
right_child=1 2 -4
leaf_value=0.0051310363148059888 -0.0064274185445668897 4.0821610921337831e-05 0.00023792294576034081
leaf_weight=149 125 166 104
leaf_count=149 125 166 104
internal_value=9.47809e-07 -0.00191476 0.000146421
internal_weight=544 395 270
internal_count=544 395 270
cat_boundaries=0 1
cat_threshold=1
is_linear=0
shrinkage=0.08


Tree=76
num_leaves=3
num_cat=1
split_feature=24 16
split_gain=0.818803 0.13296
threshold=0 12.500000000000002
decision_type=1 2
left_child=-1 -2
right_child=1 -3
leaf_value=0.0063594411910430923 0.00013437089745822666 -0.0026579653136274621
leaf_weight=105 179 260
leaf_count=105 179 260
internal_value=2.0333e-06 -0.00150141
internal_weight=544 439
internal_count=544 439
cat_boundaries=0 1
cat_threshold=4
is_linear=0
shrinkage=0.08


Tree=77
num_leaves=3
num_cat=0
split_feature=8 16
split_gain=0.728478 0.473397
threshold=0.58500000000000008 12.500000000000002
decision_type=2 2
left_child=1 -1
right_child=-2 -3
leaf_value=-0.00089671890775054337 -0.0045169245535920813 0.0046917795493578883
leaf_weight=190 160 194
leaf_count=190 160 194
internal_value=1.92708e-06 0.0019063
internal_weight=544 384
internal_count=544 384
is_linear=0
shrinkage=0.08


Tree=78
num_leaves=3
num_cat=1
split_feature=0 19
split_gain=0.759708 0.513448
threshold=0 10.500000000000002
decision_type=1 2
left_child=-1 -2
right_child=1 -3
leaf_value=0.0048797955273542533 -0.0060601751641522969 0.00011191876723076934
leaf_weight=149 125 270
leaf_count=149 125 270
internal_value=0 -0.00182207
internal_weight=544 395
internal_count=544 395
cat_boundaries=0 1
cat_threshold=1
is_linear=0
shrinkage=0.08


Tree=79
num_leaves=3
num_cat=1
split_feature=23 16
split_gain=0.752949 0.162146
threshold=0 12.500000000000002
decision_type=9 2
left_child=1 -1
right_child=-2 -3
leaf_value=0.00015012643839855457 0.0052220254620022914 -0.0029991265498819
leaf_weight=175 125 244
leaf_count=175 125 244
internal_value=0 -0.00162619
internal_weight=544 419
internal_count=544 419
cat_boundaries=0 1
cat_threshold=1026
is_linear=0
shrinkage=0.08


Tree=80
num_leaves=3
num_cat=0
split_feature=8 16
split_gain=0.662837 0.452624
threshold=0.58500000000000008 12.500000000000002
decision_type=2 2
left_child=1 -1
right_child=-2 -3
leaf_value=-0.00091593029948518754 -0.0043025293748018374 0.0045485326297588875
leaf_weight=190 160 194
leaf_count=190 160 194
internal_value=7.19882e-06 0.0018244
internal_weight=544 384
internal_count=544 384
is_linear=0
shrinkage=0.08


Tree=81
num_leaves=3
num_cat=0
split_feature=10 16
split_gain=0.688325 0.229873
threshold=174.00000000000003 12.500000000000002
decision_type=2 2
left_child=-1 -2
right_child=1 -3
leaf_value=0.0049456201026402283 0.0006871494583549669 -0.0031626083237883754
leaf_weight=136 161 247
leaf_count=136 161 247
internal_value=4.26053e-06 -0.00162406
internal_weight=544 408
internal_count=544 408
is_linear=0
shrinkage=0.08


Tree=82
num_leaves=3
num_cat=1
split_feature=0 19
split_gain=0.670845 0.462999
threshold=0 10.500000000000002
decision_type=1 2
left_child=-1 -2
right_child=1 -3
leaf_value=0.0045908792745659299 -0.0057316096835165961 0.00012838501204598263
leaf_weight=149 125 270
leaf_count=149 125 270
internal_value=3.95611e-06 -0.00170678
internal_weight=544 395
internal_count=544 395
cat_boundaries=0 1
cat_threshold=1
is_linear=0
shrinkage=0.08


Tree=83
num_leaves=4
num_cat=0
split_feature=16 26 16
split_gain=0.646573 0.765205 0.00748304
threshold=14.500000000000002 2335.0000000000005 11.500000000000002
decision_type=2 2 2
left_child=1 2 -1
right_child=-2 -3 -4
leaf_value=0.00010812733445750546 0.0045914955129609455 -0.0072891056279062519 0.0010015236691428672
leaf_weight=169 145 111 119
leaf_count=169 145 111 119
internal_value=3.62464e-06 -0.00164433 0.000505261
internal_weight=544 399 288
internal_count=544 399 288
is_linear=0
shrinkage=0.08


Tree=84
num_leaves=4
num_cat=1
split_feature=0 19 17
split_gain=0.646726 0.414516 2.26113e-05
threshold=0 10.500000000000002 1.0000000180025095e-35
decision_type=1 2 2
left_child=-1 -2 -3
right_child=1 2 -4
leaf_value=0.0045084565611072719 -0.0054825984341182491 8.1558472004229586e-05 0
leaf_weight=149 125 166 104
leaf_count=149 125 166 104
internal_value=4.48765e-06 -0.00167494 5.96221e-05
internal_weight=544 395 270
internal_count=544 395 270
cat_boundaries=0 1
cat_threshold=1
is_linear=0
shrinkage=0.08


Tree=85
num_leaves=3
num_cat=1
split_feature=24 16
split_gain=0.607374 0.102637
threshold=0 12.500000000000002
decision_type=1 2
left_child=-1 -2
right_child=1 -3
leaf_value=0.0054819056054277726 0.00014425005574488628 -0.0023050351330050132
leaf_weight=105 179 260
leaf_count=105 179 260
internal_value=4.4915e-06 -0.00128833
internal_weight=544 439
internal_count=544 439
cat_boundaries=0 1
cat_threshold=4
is_linear=0
shrinkage=0.08


Tree=86
num_leaves=3
num_cat=0
split_feature=8 16
split_gain=0.570842 0.447114
threshold=0.58500000000000008 12.500000000000002
decision_type=2 2
left_child=1 -1
right_child=-2 -3
leaf_value=-0.0010326433333439427 -0.0039942571962441904 0.0044001079769877055
leaf_weight=190 160 194
leaf_count=190 160 194
internal_value=4.181e-06 0.00169163
internal_weight=544 384
internal_count=544 384
is_linear=0
shrinkage=0.08


Tree=87
num_leaves=4
num_cat=1
split_feature=0 19 17
split_gain=0.585706 0.367229 0.000429373
threshold=0 10.500000000000002 1.0000000180025095e-35
decision_type=1 2 2
left_child=-1 -2 -3
right_child=1 2 -4
leaf_value=0.0042884383775858501 -0.0051797438598127007 0.00013169692962697874 -4.3104492525116509e-05
leaf_weight=149 125 166 104
leaf_count=149 125 166 104
internal_value=1.48481e-06 -0.00159605 3.47563e-05
internal_weight=544 395 270
internal_count=544 395 270
cat_boundaries=0 1
cat_threshold=1
is_linear=0
shrinkage=0.08


Tree=88
num_leaves=4
num_cat=0
split_feature=16 26 16
split_gain=0.578982 0.703829 0.00477469
threshold=14.500000000000002 2335.0000000000005 11.500000000000002
decision_type=2 2 2
left_child=1 2 -1
right_child=-2 -3 -4
leaf_value=0.00016786150841371751 0.0043424391589396419 -0.0069725161796212742 0.00090906856092057438
leaf_weight=169 145 111 119
leaf_count=169 145 111 119
internal_value=1.77947e-07 -0.00155848 0.000502102
internal_weight=544 399 288
internal_count=544 399 288
is_linear=0
shrinkage=0.08


Tree=89
num_leaves=4
num_cat=1
split_feature=0 19 17
split_gain=0.566917 0.32916 0.000708685
threshold=0 10.500000000000002 1.0000000180025095e-35
decision_type=1 2 2
left_child=-1 -2 -3
right_child=1 2 -4
leaf_value=0.0042191868394833142 -0.0049624358611903511 0.00010417671749690152 -0.00016202781894257676
leaf_weight=149 125 166 104
leaf_count=149 125 166 104
internal_value=1.3172e-06 -0.00157014 0
internal_weight=544 395 270
internal_count=544 395 270
cat_boundaries=0 1
cat_threshold=1
is_linear=0
shrinkage=0.08


Tree=90
num_leaves=3
num_cat=1
split_feature=24 16
split_gain=0.556141 0.10246
threshold=0 12.500000000000002
decision_type=1 2
left_child=-1 -2
right_child=1 -3
leaf_value=0.0052420130065800917 0.000195762421663771 -0.002252916767412667
leaf_weight=105 179 260
leaf_count=105 179 260
internal_value=2.38293e-08 -0.00123644
internal_weight=544 439
internal_count=544 439
cat_boundaries=0 1
cat_threshold=4
is_linear=0
shrinkage=0.08


Tree=91
num_leaves=4
num_cat=0
split_feature=16 26 16
split_gain=0.503995 0.654627 0.00750992
threshold=14.500000000000002 2335.0000000000005 11.500000000000002
decision_type=2 2 2
left_child=1 2 -1
right_child=-2 -3 -4
leaf_value=0.00013413523922501975 0.0040523679710560059 -0.0066752123599327119 0.0010325152402267479
leaf_weight=169 145 111 119
leaf_count=169 145 111 119
internal_value=6.86151e-08 -0.00145317 0.000533339
internal_weight=544 399 288
internal_count=544 399 288
is_linear=0
shrinkage=0.08


Tree=92
num_leaves=4
num_cat=1
split_feature=0 16 17
split_gain=0.541891 0.318719 0.00180098
threshold=0 13.500000000000002 1.0000000180025095e-35
decision_type=1 2 2
left_child=-1 2 -2
right_child=1 -3 -4
leaf_value=0.0041252647013616476 8.7714269538264925e-05 -0.0050578919540798743 -0.00031267787506556317
leaf_weight=149 170 116 109
leaf_count=149 170 116 109
internal_value=1.21807e-06 -0.00153484 -4.01038e-05
internal_weight=544 395 279
internal_count=544 395 279
cat_boundaries=0 1
cat_threshold=1
is_linear=0
shrinkage=0.08


Tree=93
num_leaves=4
num_cat=0
split_feature=16 26 17
split_gain=0.477684 0.599735 0.00618077
threshold=14.500000000000002 2335.0000000000005 1.0000000180025095e-35
decision_type=2 2 2
left_child=1 2 -1
right_child=-2 -3 -4
leaf_value=0.00012566743618800571 0.0039454207458962751 -0.0064127723941064764 0.00095014240876687285
leaf_weight=172 145 111 116
leaf_count=172 145 111 116
internal_value=0 -0.00141448 0.00048573
internal_weight=544 399 288
internal_count=544 399 288
is_linear=0
shrinkage=0.08


Tree=94
num_leaves=4
num_cat=1
split_feature=0 16 16
split_gain=0.52176 0.300516 0.00178128
threshold=0 13.500000000000002 11.500000000000002
decision_type=1 2 2
left_child=-1 2 -2
right_child=1 -3 -4
leaf_value=0.0040480833735984101 6.6035792384741318e-05 -0.0049270921431539601 -0.00033145283788127699
leaf_weight=149 175 116 104
leaf_count=149 175 116 104
internal_value=1.08888e-06 -0.00150589 -5.35341e-05
internal_weight=544 395 279
internal_count=544 395 279
cat_boundaries=0 1
cat_threshold=1
is_linear=0
shrinkage=0.08


Tree=95
num_leaves=3
num_cat=1
split_feature=24 16
split_gain=0.468102 0.0802569
threshold=0 12.500000000000002
decision_type=1 2
left_child=-1 -2
right_child=1 -3
leaf_value=0.0048102178662079624 0.00012868928562356801 -0.0020327037255759885
leaf_weight=105 179 260
leaf_count=105 179 260
internal_value=0 -0.00113336
internal_weight=544 439
internal_count=544 439
cat_boundaries=0 1
cat_threshold=4
is_linear=0
shrinkage=0.08


Tree=96
num_leaves=3
num_cat=0
split_feature=8 16
split_gain=0.445957 0.395131
threshold=0.58500000000000008 12.500000000000002
decision_type=2 2
left_child=1 -1
right_child=-2 -3
leaf_value=-0.0010666659424597813 -0.0035325432279328123 0.0040404990333094545
leaf_weight=190 160 194
leaf_count=190 160 194
internal_value=0 0.00149307
internal_weight=544 384
internal_count=544 384
is_linear=0
shrinkage=0.08


Tree=97
num_leaves=4
num_cat=1
split_feature=0 19 17
split_gain=0.472291 0.278482 0.000777617
threshold=0 10.500000000000002 1.0000000180025095e-35
decision_type=1 2 2
left_child=-1 -2 -3
right_child=1 2 -4
leaf_value=0.0038486208719726699 -0.0045558039433092811 0.00011731801331402092 -0.00016076869276139972
leaf_weight=149 125 166 104
leaf_count=149 125 166 104
internal_value=0 -0.00143554 0
internal_weight=544 395 270
internal_count=544 395 270
cat_boundaries=0 1
cat_threshold=1
is_linear=0
shrinkage=0.08


Tree=98
num_leaves=4
num_cat=0
split_feature=16 26 17
split_gain=0.44063 0.554796 0.0038083
threshold=14.500000000000002 2335.0000000000005 1.0000000180025095e-35
decision_type=2 2 2
left_child=1 2 -1
right_child=-2 -3 -4
leaf_value=0.0001653454379481088 0.0037865152784580204 -0.0061689056849071949 0.00084062928427933268
leaf_weight=172 145 111 116
leaf_count=172 145 111 116
internal_value=0 -0.00136134 0.0004653
internal_weight=544 399 288
internal_count=544 399 288
is_linear=0
shrinkage=0.08


Tree=99
num_leaves=4
num_cat=1
split_feature=0 16 16
split_gain=0.456541 0.26795 0.00542424
threshold=0 14.500000000000002 11.500000000000002
decision_type=1 2 2
left_child=-1 2 -2
right_child=1 -3 -4
leaf_value=0.0037845508478916712 0.00013920056703327591 -0.0048072259846271802 -0.00055395513955635797
leaf_weight=149 175 108 112
leaf_count=149 175 108 112
internal_value=0 -0.00141075 -0.000103533
internal_weight=544 395 287
internal_count=544 395 287
cat_boundaries=0 1
cat_threshold=1
is_linear=0
shrinkage=0.08


Tree=100
num_leaves=3
num_cat=1
split_feature=24 16
split_gain=0.42042 0.077949
threshold=0 12.500000000000002
decision_type=1 2
left_child=-1 -2
right_child=1 -3
leaf_value=0.004556556604341822 0.00016777994066460183 -0.0019631496307228667
leaf_weight=105 179 260
leaf_count=105 179 260
internal_value=0 -0.00107621
internal_weight=544 439
internal_count=544 439
cat_boundaries=0 1
cat_threshold=4
is_linear=0
shrinkage=0.08


Tree=101
num_leaves=4
num_cat=0
split_feature=16 26 16
split_gain=0.400007 0.519421 0.00534218
threshold=14.500000000000002 2335.0000000000005 11.500000000000002
decision_type=2 2 2
left_child=1 2 -1
right_child=-2 -3 -4
leaf_value=0.00012437853909310755 0.0036089513328139496 -0.0059480224891786219 0.00089519829069374494
leaf_weight=169 145 111 119
leaf_count=169 145 111 119
internal_value=0 -0.00129585 0.000470845
internal_weight=544 399 288
internal_count=544 399 288
is_linear=0
shrinkage=0.08


Tree=102
num_leaves=4
num_cat=1
split_feature=0 16 16
split_gain=0.4361 0.264549 0.00338544
threshold=0 14.500000000000002 11.500000000000002
decision_type=1 2 2
left_child=-1 2 -2
right_child=1 -3 -4
leaf_value=0.003699764725193132 0.00010531653416609506 -0.0047523687050697655 -0.00043809074104284203
leaf_weight=149 175 108 112
leaf_count=149 175 108 112
internal_value=0 -0.00137788 -7.89587e-05
internal_weight=544 395 287
internal_count=544 395 287
cat_boundaries=0 1
cat_threshold=1
is_linear=0
shrinkage=0.08


Tree=103
num_leaves=4
num_cat=0
split_feature=16 26 16
split_gain=0.382129 0.478678 0.00452232
threshold=14.500000000000002 2335.0000000000005 11.500000000000002
decision_type=2 2 2
left_child=1 2 -1
right_child=-2 -3 -4
leaf_value=0.00010601381656159176 0.0035279404870564987 -0.0057319371776469235 0.00081974854501625828
leaf_weight=169 145 111 119
leaf_count=169 145 111 119
internal_value=0 -0.001266 0.000428875
internal_weight=544 399 288
internal_count=544 399 288
is_linear=0
shrinkage=0.08


Tree=104
num_leaves=4
num_cat=1
split_feature=0 16 16
split_gain=0.419498 0.253547 0.00334856
threshold=0 14.500000000000002 11.500000000000002
decision_type=1 2 2
left_child=-1 2 -2
right_child=1 -3 -4
leaf_value=0.0036291834610838532 0.0001044233098651667 -0.0046545050463447082 -0.00043586692571753011
leaf_weight=149 175 108 112
leaf_count=149 175 108 112
internal_value=0 -0.00135087 -7.86352e-05
internal_weight=544 395 287
internal_count=544 395 287
cat_boundaries=0 1
cat_threshold=1
is_linear=0
shrinkage=0.08


Tree=105
num_leaves=4
num_cat=0
split_feature=16 26 16
split_gain=0.365113 0.441961 0.00383646
threshold=14.500000000000002 2335.0000000000005 11.500000000000002
decision_type=2 2 2
left_child=1 2 -1
right_child=-2 -3 -4
leaf_value=8.9188757722085923e-05 0.0034490184526477169 -0.0055281499728332441 0.00075083667978544284
leaf_weight=169 145 111 119
leaf_count=169 145 111 119
internal_value=0 -0.00123696 0.000390512
internal_weight=544 399 288
internal_count=544 399 288
is_linear=0
shrinkage=0.08


Tree=106
num_leaves=4
num_cat=1
split_feature=0 16 16
split_gain=0.402549 0.243173 0.00327068
threshold=0 14.500000000000002 11.500000000000002
decision_type=1 2 2
left_child=-1 2 -2
right_child=1 -3 -4
leaf_value=0.0035556142695502978 0.00010434193950442162 -0.0045581553035538916 -0.00042967509541471131
leaf_weight=149 175 108 112
leaf_count=149 175 108 112
internal_value=0 -0.00132279 -7.62672e-05
internal_weight=544 395 287
internal_count=544 395 287
cat_boundaries=0 1
cat_threshold=1
is_linear=0
shrinkage=0.08


Tree=107
num_leaves=4
num_cat=0
split_feature=16 26 17
split_gain=0.348923 0.408752 0.00338114
threshold=14.500000000000002 2335.0000000000005 1.0000000180025095e-35
decision_type=2 2 2
left_child=1 2 -1
right_child=-2 -3 -4
leaf_value=7.5519392131581553e-05 0.0033721697987407081 -0.0053354900847352596 0.00070087903937281562
leaf_weight=172 145 111 116
leaf_count=172 145 111 116
internal_value=0 -0.00120873 0.000355324
internal_weight=544 399 288
internal_count=544 399 288
is_linear=0
shrinkage=0.08


Tree=108
num_leaves=4
num_cat=1
split_feature=0 16 16
split_gain=0.385583 0.233335 0.00306766
threshold=0 14.500000000000002 11.500000000000002
decision_type=1 2 2
left_child=-1 2 -2
right_child=1 -3 -4
leaf_value=0.0034803675686769404 0.00010136581625446874 -0.0044633642353193292 -0.00041539540776930231
leaf_weight=149 175 108 112
leaf_count=149 175 108 112
internal_value=0 -0.00129412 -7.25067e-05
internal_weight=544 395 287
internal_count=544 395 287
cat_boundaries=0 1
cat_threshold=1
is_linear=0
shrinkage=0.08


Tree=109
num_leaves=3
num_cat=1
split_feature=24 16
split_gain=0.344758 0.0545633
threshold=0 12.500000000000002
decision_type=1 2
left_child=-1 -2
right_child=1 -3
leaf_value=0.0041285170790527573 6.0047669817721087e-05 -0.0017134369139193268
leaf_weight=105 179 260
leaf_count=105 179 260
internal_value=0 -0.00097224
internal_weight=544 439
internal_count=544 439
cat_boundaries=0 1
cat_threshold=4
is_linear=0
shrinkage=0.08


Tree=110
num_leaves=3
num_cat=0
split_feature=8 16
split_gain=0.329715 0.342738
threshold=0.58500000000000008 12.500000000000002
decision_type=2 2
left_child=1 -1
right_child=-2 -3
leaf_value=-0.0010982765476055237 -0.0030369385246706336 0.0036583879458660907
leaf_weight=190 160 194
leaf_count=190 160 194
internal_value=0 0.00128433
internal_weight=544 384
internal_count=544 384
is_linear=0
shrinkage=0.08


Tree=111
num_leaves=4
num_cat=1
split_feature=0 16 16
split_gain=0.348565 0.209508 0.00533511
threshold=0 14.500000000000002 11.500000000000002
decision_type=1 2 2
left_child=-1 2 -2
right_child=1 -3 -4
leaf_value=0.0033066146488480732 0.00016848749104038369 -0.0042361844376515292 -0.00052365386039832822
leaf_weight=149 175 108 112
leaf_count=149 175 108 112
internal_value=0 -0.00123293 -7.38399e-05
internal_weight=544 395 287
internal_count=544 395 287
cat_boundaries=0 1
cat_threshold=1
is_linear=0
shrinkage=0.08


Tree=112
num_leaves=4
num_cat=0
split_feature=16 26 17
split_gain=0.335217 0.384132 0.00146388
threshold=14.500000000000002 2335.0000000000005 1.0000000180025095e-35
decision_type=2 2 2
left_child=1 2 -1
right_child=-2 -3 -4
leaf_value=0.00011659595807976394 0.0033028087956634457 -0.0051877393430680664 0.00057242326570183853
leaf_weight=172 145 111 116
leaf_count=172 145 111 116
internal_value=0 -0.00118725 0.000328096
internal_weight=544 399 288
internal_count=544 399 288
is_linear=0
shrinkage=0.08


Tree=113
num_leaves=4
num_cat=1
split_feature=0 16 16
split_gain=0.335657 0.202499 0.00475087
threshold=0 14.500000000000002 11.500000000000002
decision_type=1 2 2
left_child=-1 2 -2
right_child=1 -3 -4
leaf_value=0.0032456659523134347 0.00015773543680585637 -0.0041615833783182812 -0.00049454791124504689
leaf_weight=149 175 108 112
leaf_count=149 175 108 112
internal_value=0 -0.00120903 -6.90329e-05
internal_weight=544 395 287
internal_count=544 395 287
cat_boundaries=0 1
cat_threshold=1
is_linear=0
shrinkage=0.08


Tree=114
num_leaves=4
num_cat=0
split_feature=16 26 17
split_gain=0.318522 0.354652 0.00132912
threshold=14.500000000000002 2335.0000000000005 1.0000000180025095e-35
decision_type=2 2 2
left_child=1 2 -1
right_child=-2 -3 -4
leaf_value=9.5733065030416869e-05 0.0032203570861487475 -0.0050003198969482202 0.00052987822988367363
leaf_weight=172 145 111 116
leaf_count=172 145 111 116
internal_value=0 -0.00115645 0.000298488
internal_weight=544 399 288
internal_count=544 399 288
is_linear=0
shrinkage=0.08


Tree=115
num_leaves=4
num_cat=1
split_feature=0 16 16
split_gain=0.322393 0.195664 0.00422847
threshold=0 14.500000000000002 11.500000000000002
decision_type=1 2 2
left_child=-1 2 -2
right_child=1 -3 -4
leaf_value=0.0031816681683823063 0.00014905905039360836 -0.0040863549258218779 -0.00046571774766294429
leaf_weight=149 175 108 112
leaf_count=149 175 108 112
internal_value=0 -0.00118411 -6.30676e-05
internal_weight=544 395 287
internal_count=544 395 287
cat_boundaries=0 1
cat_threshold=1
is_linear=0
shrinkage=0.08


Tree=116
num_leaves=4
num_cat=0
split_feature=16 26 17
split_gain=0.302932 0.327981 0.00119895
threshold=14.500000000000002 2335.0000000000005 1.0000000180025095e-35
decision_type=2 2 2
left_child=1 2 -1
right_child=-2 -3 -4
leaf_value=7.7056790973162106e-05 0.0031413235143244239 -0.0048234717510338846 0.00048950713447091186
leaf_weight=172 145 111 116
leaf_count=172 145 111 116
internal_value=0 -0.00112702 0.000271063
internal_weight=544 399 288
internal_count=544 399 288
is_linear=0
shrinkage=0.08


Tree=117
num_leaves=4
num_cat=1
split_feature=0 16 16
split_gain=0.308948 0.189011 0.00376014
threshold=0 14.500000000000002 11.500000000000002
decision_type=1 2 2
left_child=-1 2 -2
right_child=1 -3 -4
leaf_value=0.0031153367124472911 0.00014215262152514143 -0.0040108223328372047 -0.00043725150936415268
leaf_weight=149 175 108 112
leaf_count=149 175 108 112
internal_value=0 -0.00115843 -5.6165e-05
internal_weight=544 395 287
internal_count=544 395 287
cat_boundaries=0 1
cat_threshold=1
is_linear=0
shrinkage=0.08


Tree=118
num_leaves=3
num_cat=1
split_feature=24 16
split_gain=0.296275 0.0464425
threshold=0 12.500000000000002
decision_type=1 2
left_child=-1 -2
right_child=1 -3
leaf_value=0.0038267965527600503 4.7176796828548975e-05 -0.0015855347107071286
leaf_weight=105 179 260
leaf_count=105 179 260
internal_value=0 -0.000901727
internal_weight=544 439
internal_count=544 439
cat_boundaries=0 1
cat_threshold=4
is_linear=0
shrinkage=0.08


Tree=119
num_leaves=4
num_cat=0
split_feature=16 26 16
split_gain=0.274641 0.309914 0.00210856
threshold=14.500000000000002 2335.0000000000005 11.500000000000002
decision_type=2 2 2
left_child=1 2 -1
right_child=-2 -3 -4
leaf_value=4.9771898591892032e-05 0.0029922877881113702 -0.0046654970846017356 0.0005553813621332975
leaf_weight=169 145 111 119
leaf_count=169 145 111 119
internal_value=0 -0.00107185 0.000286575
internal_weight=544 399 288
internal_count=544 399 288
is_linear=0
shrinkage=0.08


Tree=120
num_leaves=4
num_cat=1
split_feature=0 16 16
split_gain=0.29231 0.18759 0.00231944
threshold=0 14.500000000000002 11.500000000000002
decision_type=1 2 2
left_child=-1 2 -2
right_child=1 -3 -4
leaf_value=0.0030312839816033967 0.00012214664291103252 -0.0039669121215501193 -0.00033330598261405072
leaf_weight=149 175 108 112
leaf_count=149 175 108 112
internal_value=0 -0.00112579 -2.77803e-05
internal_weight=544 395 287
internal_count=544 395 287
cat_boundaries=0 1
cat_threshold=1
is_linear=0
shrinkage=0.08


Tree=121
num_leaves=4
num_cat=0
split_feature=16 26 16
split_gain=0.262763 0.286895 0.00180028
threshold=14.500000000000002 2335.0000000000005 11.500000000000002
decision_type=2 2 2
left_child=1 2 -1
right_child=-2 -3 -4
leaf_value=3.6026572269987308e-05 0.0029274427284358868 -0.0045053499582970507 0.00050599011078814721
leaf_weight=169 145 111 119
leaf_count=169 145 111 119
internal_value=0 -0.00104783 0.000258089
internal_weight=544 399 288
internal_count=544 399 288
is_linear=0
shrinkage=0.08


Tree=122
num_leaves=4
num_cat=1
split_feature=0 16 16
split_gain=0.279353 0.180113 0.002199
threshold=0 14.500000000000002 11.500000000000002
decision_type=1 2 2
left_child=-1 2 -2
right_child=1 -3 -4
leaf_value=0.0029639269621345695 0.00012194923975684179 -0.0038838312553912129 -0.00032207405996358525
leaf_weight=149 175 108 112
leaf_count=149 175 108 112
internal_value=0 -0.00109996 -2.35151e-05
internal_weight=544 395 287
internal_count=544 395 287
cat_boundaries=0 1
cat_threshold=1
is_linear=0
shrinkage=0.08


Tree=123
num_leaves=4
num_cat=0
split_feature=16 26 16
split_gain=0.251441 0.265954 0.00153961
threshold=14.500000000000002 2335.0000000000005 11.500000000000002
decision_type=2 2 2
left_child=1 2 -1
right_child=-2 -3 -4
leaf_value=2.3396005033389268e-05 0.002864208405787353 -0.0043533053021780769 0.00046038810349795597
leaf_weight=169 145 111 119
leaf_count=169 145 111 119
internal_value=0 -0.00102446 0.000231824
internal_weight=544 399 288
internal_count=544 399 288
is_linear=0
shrinkage=0.08


Tree=124
num_leaves=4
num_cat=1
split_feature=0 16 16
split_gain=0.266511 0.173032 0.00206782
threshold=0 14.500000000000002 11.500000000000002
decision_type=1 2 2
left_child=-1 2 -2
right_child=1 -3 -4
leaf_value=0.0028955586013989431 0.00012232605212589867 -0.0038023369771727367 -0.00030908229890845248
leaf_weight=149 175 108 112
leaf_count=149 175 108 112
internal_value=0 -0.00107381 -1.82126e-05
internal_weight=544 395 287
internal_count=544 395 287
cat_boundaries=0 1
cat_threshold=1
is_linear=0
shrinkage=0.08


Tree=125
num_leaves=4
num_cat=2
split_feature=24 22 16
split_gain=0.243365 0.0368906 0.00538112
threshold=0 1 11.500000000000002
decision_type=1 9 2
left_child=-1 2 -2
right_child=1 -3 -4
leaf_value=0.0034704738344242194 0 -0.0021049154214188796 -0.00065894221215514765
leaf_weight=105 165 100 174
leaf_count=105 165 100 174
internal_value=0 -0.000815046 -0.0003384
internal_weight=544 439 339
internal_count=544 439 339
cat_boundaries=0 1 2
cat_threshold=4 4
is_linear=0
shrinkage=0.08


Tree=126
num_leaves=3
num_cat=0
split_feature=8 16
split_gain=0.235605 0.292627
threshold=0.58500000000000008 12.500000000000002
decision_type=2 2
left_child=1 -1
right_child=-2 -3
leaf_value=-0.0011185545640273009 -0.0025714187371980246 0.0032768746309480424
leaf_weight=190 160 194
leaf_count=190 160 194
internal_value=0 0.0010815
internal_weight=544 384
internal_count=544 384
is_linear=0
shrinkage=0.08


Tree=127
num_leaves=4
num_cat=1
split_feature=0 16 16
split_gain=0.248868 0.158107 0.00485335
threshold=0 14.500000000000002 11.500000000000002
decision_type=1 2 2
left_child=-1 2 -2
right_child=1 -3 -4
leaf_value=0.0027899966512929769 0.00019652774994676964 -0.0036544475145121069 -0.00046900638911696977
leaf_weight=149 175 108 112
leaf_count=149 175 108 112
internal_value=0 -0.00104583 -3.54009e-05
internal_weight=544 395 287
internal_count=544 395 287
cat_boundaries=0 1
cat_threshold=1
is_linear=0
shrinkage=0.08


Tree=128
num_leaves=4
num_cat=0
split_feature=16 26 17
split_gain=0.237617 0.244534 0.000173174
threshold=14.500000000000002 2335.0000000000005 1.0000000180025095e-35
decision_type=2 2 2
left_child=1 2 -1
right_child=-2 -3 -4
leaf_value=7.4462459413448371e-05 0.0027770729109562737 -0.004195051609490714 0.00031739633487061015
leaf_weight=172 145 111 116
leaf_count=172 145 111 116
internal_value=0 -0.00100327 0.000200155
internal_weight=544 399 288
internal_count=544 399 288
is_linear=0
shrinkage=0.08


Tree=129
num_leaves=4
num_cat=1
split_feature=0 16 16
split_gain=0.238042 0.152658 0.00417411
threshold=0 14.500000000000002 11.500000000000002
decision_type=1 2 2
left_child=-1 2 -2
right_child=1 -3 -4
leaf_value=0.0027302762962463003 0.00018523298569878875 -0.0035843225832508192 -0.00043209249361432316
leaf_weight=149 175 108 112
leaf_count=149 175 108 112
internal_value=0 -0.00102118 -2.78763e-05
internal_weight=544 395 287
internal_count=544 395 287
cat_boundaries=0 1
cat_threshold=1
is_linear=0
shrinkage=0.08


Tree=130
num_leaves=4
num_cat=0
split_feature=16 26 17
split_gain=0.22649 0.226694 0.000210437
threshold=14.500000000000002 2335.0000000000005 1.0000000180025095e-35
decision_type=2 2 2
left_child=1 2 -1
right_child=-2 -3 -4
leaf_value=5.5063332386102736e-05 0.0027127922398213441 -0.0040510393451802058 0.00029531081015377291
leaf_weight=172 145 111 116
leaf_count=172 145 111 116
internal_value=0 -0.000977972 0.000179667
internal_weight=544 399 288
internal_count=544 399 288
is_linear=0
shrinkage=0.08


Tree=131
num_leaves=4
num_cat=1
split_feature=0 16 16
split_gain=0.227264 0.147382 0.00359296
threshold=0 14.500000000000002 11.500000000000002
decision_type=1 2 2
left_child=-1 2 -2
right_child=1 -3 -4
leaf_value=0.0026691968582625526 0.00017595910357108189 -0.0035146645726730824 -0.00039721847801775832
leaf_weight=149 175 108 112
leaf_count=149 175 108 112
internal_value=0 -0.000996338 -1.99155e-05
internal_weight=544 395 287
internal_count=544 395 287
cat_boundaries=0 1
cat_threshold=1
is_linear=0
shrinkage=0.08


Tree=132
num_leaves=4
num_cat=0
split_feature=16 26 17
split_gain=0.216031 0.210416 0.000234673
threshold=14.500000000000002 2335.0000000000005 1.0000000180025095e-35
decision_type=2 2 2
left_child=1 2 -1
right_child=-2 -3 -4
leaf_value=3.7738014183579174e-05 0.0026507482793230921 -0.0039143634469497321 0.00027336157270379103
leaf_weight=172 145 111 116
leaf_count=172 145 111 116
internal_value=0 -0.00095378 0.000160472
internal_weight=544 399 288
internal_count=544 399 288
is_linear=0
shrinkage=0.08


Tree=133
num_leaves=4
num_cat=1
split_feature=0 16 16
split_gain=0.216618 0.142279 0.00309341
threshold=0 14.500000000000002 11.500000000000002
decision_type=1 2 2
left_child=-1 2 -2
right_child=1 -3 -4
leaf_value=0.0026072059736645206 0.00016841514126479049 -0.003445615167354788 -0.0003642128399813367
leaf_weight=149 175 108 112
leaf_count=149 175 108 112
internal_value=0 -0.000971424 -1.16293e-05
internal_weight=544 395 287
internal_count=544 395 287
cat_boundaries=0 1
cat_threshold=1
is_linear=0
shrinkage=0.08


Tree=134
num_leaves=4
num_cat=1
split_feature=24 16 17
split_gain=0.209184 0.030547 3.62992e-05
threshold=0 12.500000000000002 3.5000000000000004
decision_type=1 2 2
left_child=-1 -2 -3
right_child=1 2 -4
leaf_value=0.0032142014270887622 1.3913513519522975e-06 -0.0015438571442143027 -0.00097146217070838967
leaf_weight=105 179 141 119
leaf_count=105 179 141 119
internal_value=0 -0.00075903 -0.00131311
internal_weight=544 439 260
internal_count=544 439 260
cat_boundaries=0 1
cat_threshold=4
is_linear=0
shrinkage=0.08


Tree=135
num_leaves=4
num_cat=0
split_feature=16 26 16
split_gain=0.195848 0.19979 0.00068775
threshold=14.500000000000002 2335.0000000000005 12.500000000000002
decision_type=2 2 2
left_child=1 2 -1
right_child=-2 -3 -4
leaf_value=2.8107881209059573e-05 0.0025245931408246747 -0.003792752954307491 0.00035003225227107665
leaf_weight=179 145 111 109
leaf_count=179 145 111 109
internal_value=0 -0.000907422 0.000177795
internal_weight=544 399 288
internal_count=544 399 288
is_linear=0
shrinkage=0.08


Tree=136
num_leaves=4
num_cat=1
split_feature=0 16 16
split_gain=0.204365 0.141602 0.00191078
threshold=0 14.500000000000002 11.500000000000002
decision_type=1 2 2
left_child=-1 2 -2
right_child=1 -3 -4
leaf_value=0.0025329845502602829 0.00015132213962386161 -0.0034107688952936944 -0.00027078165669811694
leaf_weight=149 175 108 112
leaf_count=149 175 108 112
internal_value=0 -0.000942957 0
internal_weight=544 395 287
internal_count=544 395 287
cat_boundaries=0 1
cat_threshold=1
is_linear=0
shrinkage=0.08


Tree=137
num_leaves=4
num_cat=0
split_feature=16 26 16
split_gain=0.187938 0.185468 0.000699143
threshold=14.500000000000002 2335.0000000000005 12.500000000000002
decision_type=2 2 2
left_child=1 2 -1
right_child=-2 -3 -4
leaf_value=9.3850593063366724e-06 0.0024741870663587719 -0.0036676402437449524 0.00032519470406892545
leaf_weight=179 145 111 109
leaf_count=179 145 111 109
internal_value=0 -0.000887786 0.00015675
internal_weight=544 399 288
internal_count=544 399 288
is_linear=0
shrinkage=0.08


Tree=138
num_leaves=4
num_cat=1
split_feature=0 16 16
split_gain=0.194567 0.13583 0.00173431
threshold=0 14.500000000000002 11.500000000000002
decision_type=1 2 2
left_child=-1 2 -2
right_child=1 -3 -4
leaf_value=0.0024726200821833834 0.00014855269057573013 -0.0033359116500555424 -0.0002540575612517511
leaf_weight=149 175 108 112
leaf_count=149 175 108 112
internal_value=0 -0.000918958 0
internal_weight=544 395 287
internal_count=544 395 287
cat_boundaries=0 1
cat_threshold=1
is_linear=0
shrinkage=0.08


Tree=139
num_leaves=4
num_cat=0
split_feature=16 26 16
split_gain=0.180332 0.172363 0.000701586
threshold=14.500000000000002 2335.0000000000005 12.500000000000002
decision_type=2 2 2
left_child=1 2 -1
right_child=-2 -3 -4
leaf_value=0 0.0024245852359835651 -0.0035483398394949212 0.00030151435685485747
leaf_weight=179 145 111 109
leaf_count=179 145 111 109
internal_value=0 -0.000868641 0.000137264
internal_weight=544 399 288
internal_count=544 399 288
is_linear=0
shrinkage=0.08


Tree=140
num_leaves=4
num_cat=1
split_feature=0 16 16
split_gain=0.185011 0.130362 0.00157476
threshold=0 14.500000000000002 11.500000000000002
decision_type=1 2 2
left_child=-1 2 -2
right_child=1 -3 -4
leaf_value=0.0024119323420467636 0.00014640229919564719 -0.0032630730145348104 -0.00023754274459093826
leaf_weight=149 175 108 112
leaf_count=149 175 108 112
internal_value=0 -0.000895297 0
internal_weight=544 395 287
internal_count=544 395 287
cat_boundaries=0 1
cat_threshold=1
is_linear=0
shrinkage=0.08


Tree=141
num_leaves=4
num_cat=0
split_feature=16 26 16
split_gain=0.173054 0.160308 0.000690639
threshold=14.500000000000002 2335.0000000000005 12.500000000000002
decision_type=2 2 2
left_child=1 2 -1
right_child=-2 -3 -4
leaf_value=0 0.0023758494487606109 -0.0034343662306089645 0.00027891625421037745
leaf_weight=179 145 111 109
leaf_count=179 145 111 109
internal_value=0 -0.00085023 0.000118817
internal_weight=544 399 288
internal_count=544 399 288
is_linear=0
shrinkage=0.08


Tree=142
num_leaves=4
num_cat=1
split_feature=0 16 16
split_gain=0.175761 0.125139 0.00142604
threshold=0 14.500000000000002 11.500000000000002
decision_type=1 2 2
left_child=-1 2 -2
right_child=1 -3 -4
leaf_value=0.0023511802645726225 0.00014411140639634899 -0.0031921607924489158 -0.00022130457371810619
leaf_weight=149 175 108 112
leaf_count=149 175 108 112
internal_value=0 -0.000872303 0
internal_weight=544 395 287
internal_count=544 395 287
cat_boundaries=0 1
cat_threshold=1
is_linear=0
shrinkage=0.08


Tree=143
num_leaves=4
num_cat=2
split_feature=24 22 16
split_gain=0.169524 0.0255544 0.00259975
threshold=0 1 11.500000000000002
decision_type=1 9 2
left_child=-1 2 -2
right_child=1 -3 -4
leaf_value=0.0028959806938323378 -8.0129582274689356e-06 -0.0017568479313918618 -0.00050650242270038146
leaf_weight=105 165 100 174
leaf_count=105 165 100 174
internal_value=0 -0.000680788 -0.000279304
internal_weight=544 439 339
internal_count=544 439 339
cat_boundaries=0 1 2
cat_threshold=4 4
is_linear=0
shrinkage=0.08


Tree=144
num_leaves=3
num_cat=0
split_feature=8 16
split_gain=0.165597 0.251789
threshold=0.58500000000000008 12.500000000000002
decision_type=2 2
left_child=1 -1
right_child=-2 -3
leaf_value=-0.0011342469675722153 -0.0021572736471072353 0.0029434225291604132
leaf_weight=190 160 194
leaf_count=190 160 194
internal_value=0 0.000905228
internal_weight=544 384
internal_count=544 384
is_linear=0
shrinkage=0.08


Tree=145
num_leaves=4
num_cat=1
split_feature=0 16 16
split_gain=0.164618 0.11535 0.00377044
threshold=0 14.500000000000002 11.500000000000002
decision_type=1 2 2
left_child=-1 2 -2
right_child=1 -3 -4
leaf_value=0.002267712544597371 0.00021864066967397064 -0.0030793444787485529 -0.00037495596390832339
leaf_weight=149 175 108 112
leaf_count=149 175 108 112
internal_value=0 -0.000852001 0
internal_weight=544 395 287
internal_count=544 395 287
cat_boundaries=0 1
cat_threshold=1
is_linear=0
shrinkage=0.08


Tree=146
num_leaves=3
num_cat=0
split_feature=16 26
split_gain=0.162863 0.147062
threshold=14.500000000000002 2335.0000000000005
decision_type=2 2
left_child=1 -1
right_child=-2 -3
leaf_value=9.4906348083394562e-05 0.0022977489544698739 -0.0033067746945295547
leaf_weight=288 145 111
leaf_count=288 145 111
internal_value=0 -0.000831972
internal_weight=544 399
internal_count=544 399
is_linear=0
shrinkage=0.08


Tree=147
num_leaves=4
num_cat=1
split_feature=0 16 16
split_gain=0.156795 0.111128 0.00309879
threshold=0 14.500000000000002 11.500000000000002
decision_type=1 2 2
left_child=-1 2 -2
right_child=1 -3 -4
leaf_value=0.0022139654293566405 0.00020289620062254418 -0.0030168746646138723 -0.00033557874993832385
leaf_weight=149 175 108 112
leaf_count=149 175 108 112
internal_value=0 -0.000830715 0
internal_weight=544 395 287
internal_count=544 395 287
cat_boundaries=0 1
cat_threshold=1
is_linear=0
shrinkage=0.08


Tree=148
num_leaves=3
num_cat=0
split_feature=16 26
split_gain=0.155861 0.136572
threshold=14.500000000000002 2335.0000000000005
decision_type=2 2
left_child=1 -1
right_child=-2 -3
leaf_value=7.8972360563387851e-05 0.0022485317646183697 -0.0031978889257654646
leaf_weight=288 145 111
leaf_count=288 145 111
internal_value=0 -0.000813163
internal_weight=544 399
internal_count=544 399
is_linear=0
shrinkage=0.08


Tree=149
num_leaves=4
num_cat=1
split_feature=0 16 16
split_gain=0.149132 0.107086 0.00254361
threshold=0 14.500000000000002 11.500000000000002
decision_type=1 2 2
left_child=-1 2 -2
right_child=1 -3 -4
leaf_value=0.0021598870641009109 0.000189342451186639 -0.0029554641452186315 -0.00029869885236210962
leaf_weight=149 175 108 112
leaf_count=149 175 108 112
internal_value=0 -0.000809456 0
internal_weight=544 395 287
internal_count=544 395 287
cat_boundaries=0 1
cat_threshold=1
is_linear=0
shrinkage=0.08


Tree=150
num_leaves=4
num_cat=0
split_feature=16 26 16
split_gain=0.149214 0.126953 6.12663e-05
threshold=14.500000000000002 2335.0000000000005 12.500000000000002
decision_type=2 2 2
left_child=1 2 -1
right_child=-2 -3 -4
leaf_value=0 0.0022006953570819741 -0.0030940173558293973 0.00012016066234801255
leaf_weight=179 145 111 109
leaf_count=179 145 111 109
internal_value=0 -0.000794996 6.40837e-05
internal_weight=544 399 288
internal_count=544 399 288
is_linear=0
shrinkage=0.08


Tree=151
num_leaves=4
num_cat=1
split_feature=24 16 17
split_gain=0.143989 0.020014 0.00162243
threshold=0 12.500000000000002 3.5000000000000004
decision_type=1 2 2
left_child=-1 -2 -3
right_child=1 2 -4
leaf_value=0.0026652155659178346 0 -0.001347036322949733 -0.00069429147040813929
leaf_weight=105 179 141 119
leaf_count=105 179 141 119
internal_value=0 -0.000631239 -0.00107942
internal_weight=544 439 260
internal_count=544 439 260
cat_boundaries=0 1
cat_threshold=4
is_linear=0
shrinkage=0.08


Tree=152
num_leaves=4
num_cat=1
split_feature=0 16 16
split_gain=0.140231 0.106955 0.00159361
threshold=0 14.500000000000002 11.500000000000002
decision_type=1 2 2
left_child=-1 2 -2
right_child=1 -3 -4
leaf_value=0.0020948026509671944 0.00017294381818027242 -0.0029295050183950366 -0.00021038826551378925
leaf_weight=149 175 108 112
leaf_count=149 175 108 112
internal_value=0 -0.000784565 0
internal_weight=544 395 287
internal_count=544 395 287
cat_boundaries=0 1
cat_threshold=1
is_linear=0
shrinkage=0.08


Tree=153
num_leaves=4
num_cat=0
split_feature=16 26 16
split_gain=0.135834 0.120816 0.000363363
threshold=14.500000000000002 2335.0000000000005 12.500000000000002
decision_type=2 2 2
left_child=1 2 -1
right_child=-2 -3 -4
leaf_value=0 0.0021001062951442871 -0.0030013340196557996 0.00019486394037315874
leaf_weight=179 145 111 109
leaf_count=179 145 111 109
internal_value=0 -0.000758124 7.94204e-05
internal_weight=544 399 288
internal_count=544 399 288
is_linear=0
shrinkage=0.08


Tree=154
num_leaves=4
num_cat=1
split_feature=0 16 16
split_gain=0.133209 0.102451 0.00141513
threshold=0 14.500000000000002 11.500000000000002
decision_type=1 2 2
left_child=-1 2 -2
right_child=1 -3 -4
leaf_value=0.0020425138572052292 0.00016734368692783547 -0.0028632145044871992 -0.00019248538248259228
leaf_weight=149 175 108 112
leaf_count=149 175 108 112
internal_value=0 -0.00076383 0
internal_weight=544 395 287
internal_count=544 395 287
cat_boundaries=0 1
cat_threshold=1
is_linear=0
shrinkage=0.08


Tree=155
num_leaves=3
num_cat=0
split_feature=8 16
split_gain=0.131101 0.226556
threshold=0.58500000000000008 12.500000000000002
decision_type=2 2
left_child=1 -1
right_child=-2 -3
leaf_value=-0.001127286543467056 -0.0019186180935582748 0.0027408080478066883
leaf_weight=190 160 194
leaf_count=190 160 194
internal_value=0 0.000806284
internal_weight=544 384
internal_count=544 384
is_linear=0
shrinkage=0.08


Tree=156
num_leaves=4
num_cat=1
split_feature=24 16 17
split_gain=0.126755 0.021172 0.00146109
threshold=0 12.500000000000002 3.5000000000000004
decision_type=1 2 2
left_child=-1 -2 -3
right_child=1 2 -4
leaf_value=0.0024986713636244739 3.2854082321801178e-05 -0.0013164890709139729 -0.00068059869798715129
leaf_weight=105 179 141 119
leaf_count=105 179 141 119
internal_value=0 -0.000594242 -0.00105658
internal_weight=544 439 260
internal_count=544 439 260
cat_boundaries=0 1
cat_threshold=4
is_linear=0
shrinkage=0.08


Tree=157
num_leaves=4
num_cat=1
split_feature=0 16 16
split_gain=0.121228 0.0940697 0.00311021
threshold=0 14.500000000000002 12.500000000000002
decision_type=1 2 2
left_child=-1 2 -2
right_child=1 -3 -4
leaf_value=0.0019465277692781527 0.00022749526163924144 -0.0027423572595421638 -0.00031507296686066874
leaf_weight=149 181 108 106
leaf_count=149 181 108 106
internal_value=0 -0.000730647 0
internal_weight=544 395 287
internal_count=544 395 287
cat_boundaries=0 1
cat_threshold=1
is_linear=0
shrinkage=0.08


Tree=158
num_leaves=3
num_cat=0
split_feature=16 26
split_gain=0.129334 0.113072
threshold=14.500000000000002 2335.0000000000005
decision_type=2 2
left_child=1 -1
right_child=-2 -3
leaf_value=6.8279843772892445e-05 0.0020479827459649966 -0.0029110357471139022
leaf_weight=288 145 111
leaf_count=288 145 111
internal_value=0 -0.000741029
internal_weight=544 399
internal_count=544 399
is_linear=0
shrinkage=0.08


Tree=159
num_leaves=4
num_cat=1
split_feature=0 16 16
split_gain=0.115749 0.090539 0.0026014
threshold=0 14.500000000000002 12.500000000000002
decision_type=1 2 2
left_child=-1 2 -2
right_child=1 -3 -4
leaf_value=0.0019028081797128314 0.00021305900638946709 -0.002686858805832104 -0.00028186958925719536
leaf_weight=149 181 108 106
leaf_count=149 181 108 106
internal_value=0 -0.000713163 2.36372e-06
internal_weight=544 395 287
internal_count=544 395 287
cat_boundaries=0 1
cat_threshold=1
is_linear=0
shrinkage=0.08


Tree=160
num_leaves=4
num_cat=0
split_feature=16 26 16
split_gain=0.123927 0.104694 8.53395e-06
threshold=14.500000000000002 2335.0000000000005 12.500000000000002
decision_type=2 2 2
left_child=1 2 -1
right_child=-2 -3 -4
leaf_value=0 0.0020054295492698045 -0.0028124943091244877 8.8914012686647369e-05
leaf_weight=179 145 111 109
leaf_count=179 145 111 109
internal_value=0 -0.00072466 5.29549e-05
internal_weight=544 399 288
internal_count=544 399 288
is_linear=0
shrinkage=0.08


Tree=161
num_leaves=4
num_cat=1
split_feature=0 16 16
split_gain=0.110223 0.087277 0.00224716
threshold=0 14.500000000000002 12.500000000000002
decision_type=1 2 2
left_child=-1 2 -2
right_child=1 -3 -4
leaf_value=0.0018583307204684363 0.000204720572069131 -0.0026323948287087168 -0.0002533216103841178
leaf_weight=149 181 108 106
leaf_count=149 181 108 106
internal_value=0 -0.000694418 7.65403e-06
internal_weight=544 395 287
internal_count=544 395 287
cat_boundaries=0 1
cat_threshold=1
is_linear=0
shrinkage=0.08


Tree=162
num_leaves=4
num_cat=0
split_feature=16 1 16
split_gain=0.118687 0.0998544 0.00136116
threshold=14.500000000000002 0.17500000000000002 11.500000000000002
decision_type=2 10 2
left_child=1 2 -1
right_child=-2 -3 -4
leaf_value=0.000194173356159662 0.0019639429732448556 -0.0027984122502035793 -0.00014320105610114708
leaf_weight=175 145 107 117
leaf_count=175 145 107 117
internal_value=0 -0.00070779 3.16019e-05
internal_weight=544 399 292
internal_count=544 399 292
is_linear=0
shrinkage=0.08


Tree=163
num_leaves=4
num_cat=1
split_feature=0 16 16
split_gain=0.107184 0.0833313 0.00166828
threshold=0 14.500000000000002 12.500000000000002
decision_type=1 2 2
left_child=-1 2 -2
right_child=1 -3 -4
leaf_value=0.0018318187850661759 0.00017372083729354142 -0.0025789682015735283 -0.00022162969925060774
leaf_weight=149 181 108 106
leaf_count=149 181 108 106
internal_value=0 -0.000685499 0
internal_weight=544 395 287
internal_count=544 395 287
cat_boundaries=0 1
cat_threshold=1
is_linear=0
shrinkage=0.08


Tree=164
num_leaves=4
num_cat=0
split_feature=16 1 16
split_gain=0.11388 0.093906 0.000995542
threshold=14.500000000000002 0.17500000000000002 11.500000000000002
decision_type=2 10 2
left_child=1 2 -1
right_child=-2 -3 -4
leaf_value=0.00016475867958731956 0.0019231322433139687 -0.0027211570499045736 -0.00012267441277445497
leaf_weight=175 145 107 117
leaf_count=175 145 107 117
internal_value=0 -0.000693941 2.21981e-05
internal_weight=544 399 292
internal_count=544 399 292
is_linear=0
shrinkage=0.08


Tree=165
